{"name": "tree", "version": "v3", "num_class": 1, "num_tree_per_iteration": 1, "label_index": 0, "max_feature_idx": 24, "average_output": false, "objective": "binary sigmoid:1", "feature_names": ["iswhatsapp", "education", "old_customer", "whatsapp_avatar", "whatsapp_company_account", "idinquiriesuname_21d", "recent24hours_apply", "topup_180_360_avg", "recent30days_refuse_num", "topup_0_360_min", "recent7days_apply", "topup_360_720_max", "debt_number", "debt_level", "debt_amount", "topup_360_720_avg", "recent24hours_debt_weight", "recent7days_debt__weight", "recent30days_apply", "A_II_360d", "recent7days_refuse_num", "idinquiriesuname_30d", "A_PI_360d", "preference_bank_60d", "avg_debt_amount"], "monotone_constraints": [], "tree_info": [{"tree_index": 0, "num_leaves": 3, "num_cat": 0, "shrinkage": 1, "tree_structure": {"split_index": 0, "split_feature": 21, "split_gain": 2006.0679931640625, "threshold": 18.500000000000004, "decision_type": "<=", "default_left": true, "missing_type": "None", "internal_value": 0, "internal_weight": 0, "internal_count": 24767, "left_child": {"split_index": 1, "split_feature": 10, "split_gain": 1205.122802734375, "threshold": 1.0000000180025095e-35, "decision_type": "<=", "default_left": true, "missing_type": "None", "internal_value": 0.5804024964719081, "internal_weight": 3867.400425925851, "internal_count": 14441, "left_child": {"leaf_index": 0, "leaf_value": -0.8987783594307392, "leaf_weight": 188.38822466135025, "leaf_count": 422}, "right_child": {"leaf_index": 2, "leaf_value": -0.9257195710446293, "leaf_weight": 3679.0122012645006, "leaf_count": 14019}}, "right_child": {"leaf_index": 1, "leaf_value": -0.9134140250273077, "leaf_weight": 3338.280741289258, "leaf_count": 10326}}}, {"tree_index": 1, "num_leaves": 3, "num_cat": 0, "shrinkage": 0.010389254465734332, "tree_structure": {"split_index": 0, "split_feature": 5, "split_gain": 1948.0225830078125, "threshold": 13.500000000000002, "decision_type": "<=", "default_left": true, "missing_type": "None", "internal_value": 0, "internal_weight": 0, "internal_count": 24767, "left_child": {"leaf_index": 0, "leaf_value": 0.005092185646087145, "leaf_weight": 3316.220011025667, "leaf_count": 12514}, "right_child": {"split_index": 1, "split_feature": 6, "split_gain": 1035.06201171875, "threshold": 1.0000000180025095e-35, "decision_type": "<=", "default_left": true, "missing_type": "None", "internal_value": 1.53121768364808, "internal_weight": 3924.135440185666, "internal_count": 12253, "left_child": {"leaf_index": 1, "leaf_value": 0.03111238580675229, "leaf_weight": 430.2969014495611, "leaf_count": 960}, "right_child": {"leaf_index": 2, "leaf_value": 0.014035682392678692, "leaf_weight": 3493.838538736105, "leaf_count": 11293}}}}, {"tree_index": 2, "num_leaves": 3, "num_cat": 0, "shrinkage": 0.010389254465734332, "tree_structure": {"split_index": 0, "split_feature": 10, "split_gain": 1895.60595703125, "threshold": 1.0000000180025095e-35, "decision_type": "<=", "default_left": true, "missing_type": "None", "internal_value": 0, "internal_weight": 0, "internal_count": 24767, "left_child": {"leaf_index": 0, "leaf_value": 0.032449871521900035, "leaf_weight": 411.4371089935303, "leaf_count": 860}, "right_child": {"split_index": 1, "split_feature": 5, "split_gain": 1807.405517578125, "threshold": 14.500000000000002, "decision_type": "<=", "default_left": true, "missing_type": "None", "internal_value": 0.9135440274217994, "internal_weight": 6862.793754309416, "internal_count": 23907, "left_child": {"leaf_index": 1, "leaf_value": 0.004217141591293315, "leaf_weight": 3468.766252666712, "leaf_count": 13226}, "right_child": {"leaf_index": 2, "leaf_value": 0.014881075935042008, "leaf_weight": 3394.027501642704, "leaf_count": 10681}}}}, {"tree_index": 3, "num_leaves": 3, "num_cat": 0, "shrinkage": 0.010389254465734332, "tree_structure": {"split_index": 0, "split_feature": 5, "split_gain": 1824.196044921875, "threshold": 13.500000000000002, "decision_type": "<=", "default_left": true, "missing_type": "None", "internal_value": 0, "internal_weight": 0, "internal_count": 24767, "left_child": {"leaf_index": 0, "leaf_value": 0.004958145137963814, "leaf_weight": 3331.4122481048107, "leaf_count": 12514}, "right_child": {"split_index": 1, "split_feature": 6, "split_gain": 958.02490234375, "threshold": 1.0000000180025095e-35, "decision_type": "<=", "default_left": true, "missing_type": "None", "internal_value": 1.4804312529365826, "internal_weight": 3975.8190473765135, "internal_count": 12253, "left_child": {"leaf_index": 1, "leaf_value": 0.029831154306124652, "leaf_weight": 440.3478476703167, "leaf_count": 960}, "right_child": {"leaf_index": 2, "leaf_value": 0.013580737535354404, "leaf_weight": 3535.471199706197, "leaf_count": 11293}}}}, {"tree_index": 4, "num_leaves": 3, "num_cat": 0, "shrinkage": 0.010389254465734332, "tree_structure": {"split_index": 0, "split_feature": 10, "split_gain": 1779.40673828125, "threshold": 1.0000000180025095e-35, "decision_type": "<=", "default_left": true, "missing_type": "None", "internal_value": 0, "internal_weight": 0, "internal_count": 24767, "left_child": {"leaf_index": 0, "leaf_value": 0.03122876948205931, "leaf_weight": 420.25714790821075, "leaf_count": 860}, "right_child": {"split_index": 1, "split_feature": 21, "split_gain": 1702.813720703125, "threshold": 18.500000000000004, "decision_type": "<=", "default_left": true, "missing_type": "None", "internal_value": 0.8866129301522211, "internal_weight": 6919.213349431753, "internal_count": 23907, "left_child": {"leaf_index": 1, "leaf_value": 0.004426598019489649, "leaf_weight": 3716.3530358225107, "leaf_count": 14019}, "right_child": {"leaf_index": 2, "leaf_value": 0.014762986820951474, "leaf_weight": 3202.8603136092424, "leaf_count": 9888}}}}, {"tree_index": 5, "num_leaves": 3, "num_cat": 0, "shrinkage": 0.010389254465734332, "tree_structure": {"split_index": 0, "split_feature": 5, "split_gain": 1720.04931640625, "threshold": 12.500000000000002, "decision_type": "<=", "default_left": true, "missing_type": "None", "internal_value": 0, "internal_weight": 0, "internal_count": 24767, "left_child": {"leaf_index": 0, "leaf_value": 0.0043290326570931585, "leaf_weight": 3040.342860162258, "leaf_count": 11457}, "right_child": {"split_index": 1, "split_feature": 6, "split_gain": 991.1724853515625, "threshold": 1.0000000180025095e-35, "decision_type": "<=", "default_left": true, "missing_type": "None", "internal_value": 1.3979764426957637, "internal_weight": 4330.505648389459, "internal_count": 13310, "left_child": {"leaf_index": 1, "leaf_value": 0.028502824031705787, "leaf_weight": 486.0379519164562, "leaf_count": 1047}, "right_child": {"leaf_index": 2, "leaf_value": 0.01275664761685458, "leaf_weight": 3844.4676964730024, "leaf_count": 12263}}}}, {"tree_index": 6, "num_leaves": 3, "num_cat": 0, "shrinkage": 0.010389254465734332, "tree_structure": {"split_index": 0, "split_feature": 5, "split_gain": 1665.8013916015625, "threshold": 13.500000000000002, "decision_type": "<=", "default_left": true, "missing_type": "None", "internal_value": 0, "internal_weight": 0, "internal_count": 24767, "left_child": {"leaf_index": 0, "leaf_value": 0.004755088594346655, "leaf_weight": 3354.4108229875565, "leaf_count": 12514}, "right_child": {"split_index": 1, "split_feature": 6, "split_gain": 853.1799926757812, "threshold": 1.0000000180025095e-35, "decision_type": "<=", "default_left": true, "missing_type": "None", "internal_value": 1.4106885741707014, "internal_weight": 4047.1327746361494, "internal_count": 12253, "left_child": {"leaf_index": 1, "leaf_value": 0.028067779985394992, "leaf_weight": 454.47050039470196, "leaf_count": 960}, "right_child": {"leaf_index": 2, "leaf_value": 0.012959417494065106, "leaf_weight": 3592.6622742414474, "leaf_count": 11293}}}}, {"tree_index": 7, "num_leaves": 3, "num_cat": 0, "shrinkage": 0.010389254465734332, "tree_structure": {"split_index": 0, "split_feature": 10, "split_gain": 1642.1644287109375, "threshold": 1.0000000180025095e-35, "decision_type": "<=", "default_left": true, "missing_type": "None", "internal_value": 0, "internal_weight": 0, "internal_count": 24767, "left_child": {"leaf_index": 0, "leaf_value": 0.029692808974227318, "leaf_weight": 431.50016582012177, "leaf_count": 860}, "right_child": {"split_index": 1, "split_feature": 21, "split_gain": 1577.309326171875, "threshold": 20.500000000000004, "decision_type": "<=", "default_left": true, "missing_type": "None", "internal_value": 0.8479795232897405, "internal_weight": 6999.963762968779, "internal_count": 23907, "left_child": {"leaf_index": 1, "leaf_value": 0.004860538028150891, "leaf_weight": 4264.900280982256, "leaf_count": 15747}, "right_child": {"leaf_index": 2, "leaf_value": 0.014968243467931065, "leaf_weight": 2735.0634819865227, "leaf_count": 8160}}}}, {"tree_index": 8, "num_leaves": 3, "num_cat": 0, "shrinkage": 0.010389254465734332, "tree_structure": {"split_index": 0, "split_feature": 21, "split_gain": 1584.597412109375, "threshold": 18.500000000000004, "decision_type": "<=", "default_left": true, "missing_type": "None", "internal_value": 0, "internal_weight": 0, "internal_count": 24767, "left_child": {"split_index": 1, "split_feature": 10, "split_gain": 1002.6689453125, "threshold": 1.0000000180025095e-35, "decision_type": "<=", "default_left": true, "missing_type": "None", "internal_value": 0.5167042440274852, "internal_weight": 3952.296087294817, "internal_count": 14441, "left_child": {"leaf_index": 0, "leaf_value": 0.02795845519539107, "leaf_weight": 201.27199786901474, "leaf_count": 422}, "right_child": {"leaf_index": 2, "leaf_value": 0.0041560251787895195, "leaf_weight": 3751.0240894258022, "leaf_count": 14019}}, "right_child": {"leaf_index": 1, "leaf_value": 0.014961230601825758, "leaf_weight": 3508.3129421174526, "leaf_count": 10326}}}, {"tree_index": 9, "num_leaves": 3, "num_cat": 0, "shrinkage": 0.010389254465734332, "tree_structure": {"split_index": 0, "split_feature": 6, "split_gain": 1552.2574462890625, "threshold": 1.0000000180025095e-35, "decision_type": "<=", "default_left": true, "missing_type": "None", "internal_value": 0, "internal_weight": 0, "internal_count": 24767, "left_child": {"leaf_index": 0, "leaf_value": 0.022871730756445604, "leaf_weight": 859.9265700280666, "leaf_count": 2065}, "right_child": {"split_index": 1, "split_feature": 5, "split_gain": 1432.22119140625, "threshold": 15.500000000000002, "decision_type": "<=", "default_left": true, "missing_type": "None", "internal_value": 0.7734530539586436, "internal_weight": 6629.1918759047985, "internal_count": 22702, "left_child": {"leaf_index": 1, "leaf_value": 0.0035576753867422265, "leaf_weight": 3564.3208811581135, "leaf_count": 13399}, "right_child": {"leaf_index": 2, "leaf_value": 0.013243246316660337, "leaf_weight": 3064.870994746685, "leaf_count": 9303}}}}, {"tree_index": 10, "num_leaves": 3, "num_cat": 0, "shrinkage": 0.010389254465734332, "tree_structure": {"split_index": 0, "split_feature": 5, "split_gain": 1508.2469482421875, "threshold": 12.500000000000002, "decision_type": "<=", "default_left": true, "missing_type": "None", "internal_value": 0, "internal_weight": 0, "internal_count": 24767, "left_child": {"leaf_index": 0, "leaf_value": 0.0040070280581254005, "leaf_weight": 3073.8100971132517, "leaf_count": 11457}, "right_child": {"split_index": 1, "split_feature": 6, "split_gain": 856.01318359375, "threshold": 1.0000000180025095e-35, "decision_type": "<=", "default_left": true, "missing_type": "None", "internal_value": 1.2968082592089665, "internal_weight": 4443.071494102478, "internal_count": 13310, "left_child": {"leaf_index": 1, "leaf_value": 0.026187819421785816, "leaf_weight": 506.37127259373665, "leaf_count": 1047}, "right_child": {"leaf_index": 2, "leaf_value": 0.011837368101867954, "leaf_weight": 3936.7002215087414, "leaf_count": 12263}}}}, {"tree_index": 11, "num_leaves": 3, "num_cat": 0, "shrinkage": 0.010389254465734332, "tree_structure": {"split_index": 0, "split_feature": 10, "split_gain": 1478.1082763671875, "threshold": 1.0000000180025095e-35, "decision_type": "<=", "default_left": true, "missing_type": "None", "internal_value": 0, "internal_weight": 0, "internal_count": 24767, "left_child": {"leaf_index": 0, "leaf_value": 0.027828581207865053, "leaf_weight": 445.3226307630539, "leaf_count": 860}, "right_child": {"split_index": 1, "split_feature": 21, "split_gain": 1420.758056640625, "threshold": 21.500000000000004, "decision_type": "<=", "default_left": true, "missing_type": "None", "internal_value": 0.8004531238627934, "internal_weight": 7098.67975127697, "internal_count": 23907, "left_child": {"leaf_index": 1, "leaf_value": 0.00483530991458618, "leaf_weight": 4547.956148996949, "leaf_count": 16523}, "right_child": {"leaf_index": 2, "leaf_value": 0.014522401656709096, "leaf_weight": 2550.7236022800207, "leaf_count": 7384}}}}, {"tree_index": 12, "num_leaves": 3, "num_cat": 0, "shrinkage": 0.010389254465734332, "tree_structure": {"split_index": 0, "split_feature": 5, "split_gain": 1433.85009765625, "threshold": 12.500000000000002, "decision_type": "<=", "default_left": true, "missing_type": "None", "internal_value": 0, "internal_weight": 0, "internal_count": 24767, "left_child": {"leaf_index": 0, "leaf_value": 0.0038866958544028097, "leaf_weight": 3086.259813591838, "leaf_count": 11457}, "right_child": {"split_index": 1, "split_feature": 17, "split_gain": 785.3482055664062, "threshold": 86.50000000000001, "decision_type": "<=", "default_left": true, "missing_type": "None", "internal_value": 1.2597460061676315, "internal_weight": 4484.082340374589, "internal_count": 13310, "left_child": {"leaf_index": 1, "leaf_value": 0.025675241651808664, "leaf_weight": 477.976389080286, "leaf_count": 977}, "right_child": {"leaf_index": 2, "leaf_value": 0.01158599197550982, "leaf_weight": 4006.105951294303, "leaf_count": 12333}}}}, {"tree_index": 13, "num_leaves": 3, "num_cat": 0, "shrinkage": 0.010389254465734332, "tree_structure": {"split_index": 0, "split_feature": 6, "split_gain": 1412.7015380859375, "threshold": 1.0000000180025095e-35, "decision_type": "<=", "default_left": true, "missing_type": "None", "internal_value": 0, "internal_weight": 0, "internal_count": 24767, "left_child": {"leaf_index": 0, "leaf_value": 0.02157686160070141, "leaf_weight": 881.0917496234179, "leaf_count": 2065}, "right_child": {"split_index": 1, "split_feature": 10, "split_gain": 1313.876953125, "threshold": 15.500000000000002, "decision_type": "<=", "default_left": true, "missing_type": "None", "internal_value": 0.7300960197013731, "internal_weight": 6715.098054766655, "internal_count": 22702, "left_child": {"leaf_index": 1, "leaf_value": 0.0034866284212344296, "leaf_weight": 3740.1740342974663, "leaf_count": 13761}, "right_child": {"leaf_index": 2, "leaf_value": 0.012737956009332883, "leaf_weight": 2974.9240204691887, "leaf_count": 8941}}}}, {"tree_index": 14, "num_leaves": 3, "num_cat": 0, "shrinkage": 0.010389254465734332, "tree_structure": {"split_index": 0, "split_feature": 21, "split_gain": 1369.852294921875, "threshold": 20.500000000000004, "decision_type": "<=", "default_left": true, "missing_type": "None", "internal_value": 0, "internal_weight": 0, "internal_count": 24767, "left_child": {"split_index": 1, "split_feature": 10, "split_gain": 982.0015258789062, "threshold": 1.0000000180025095e-35, "decision_type": "<=", "default_left": true, "missing_type": "None", "internal_value": 0.5285384015138231, "internal_weight": 4578.5017234534025, "internal_count": 16228, "left_child": {"leaf_index": 0, "leaf_value": 0.02584799474037551, "leaf_weight": 242.24262385070324, "leaf_count": 481}, "right_child": {"leaf_index": 2, "leaf_value": 0.0043538948309722325, "leaf_weight": 4336.259099602699, "leaf_count": 15747}}, "right_child": {"leaf_index": 1, "leaf_value": 0.014484620361887888, "leaf_weight": 3043.0023278594017, "leaf_count": 8539}}}, {"tree_index": 15, "num_leaves": 3, "num_cat": 0, "shrinkage": 0.010389254465734332, "tree_structure": {"split_index": 0, "split_feature": 6, "split_gain": 1346.6483154296875, "threshold": 1.0000000180025095e-35, "decision_type": "<=", "default_left": true, "missing_type": "None", "internal_value": 0, "internal_weight": 0, "internal_count": 24767, "left_child": {"leaf_index": 0, "leaf_value": 0.020962355720657338, "leaf_weight": 891.171133056283, "leaf_count": 2065}, "right_child": {"split_index": 1, "split_feature": 5, "split_gain": 1252.55419921875, "threshold": 14.500000000000002, "decision_type": "<=", "default_left": true, "missing_type": "None", "internal_value": 0.7098508417714292, "internal_weight": 6754.8891643583775, "internal_count": 22702, "left_child": {"leaf_index": 1, "leaf_value": 0.002819831563593648, "leaf_weight": 3316.6840693950653, "leaf_count": 12430}, "right_child": {"leaf_index": 2, "leaf_value": 0.01176881748102527, "leaf_weight": 3438.205094963312, "leaf_count": 10272}}}}, {"tree_index": 16, "num_leaves": 3, "num_cat": 0, "shrinkage": 0.010389254465734332, "tree_structure": {"split_index": 0, "split_feature": 21, "split_gain": 1320.8780517578125, "threshold": 12.500000000000002, "decision_type": "<=", "default_left": true, "missing_type": "None", "internal_value": 0, "internal_weight": 0, "internal_count": 24767, "left_child": {"leaf_index": 0, "leaf_value": 0.0022240594869681863, "leaf_weight": 2287.3996801525354, "leaf_count": 8616}, "right_child": {"split_index": 1, "split_feature": 6, "split_gain": 956.49755859375, "threshold": 1.0000000180025095e-35, "decision_type": "<=", "default_left": true, "missing_type": "None", "internal_value": 1.1211909178246513, "internal_weight": 5382.453579872847, "internal_count": 16151, "left_child": {"leaf_index": 1, "leaf_value": 0.023816128920251336, "leaf_weight": 617.3371021151543, "leaf_count": 1257}, "right_child": {"leaf_index": 2, "leaf_value": 0.010071958877518312, "leaf_weight": 4765.116477757692, "leaf_count": 14894}}}}, {"tree_index": 17, "num_leaves": 3, "num_cat": 0, "shrinkage": 0.010389254465734332, "tree_structure": {"split_index": 0, "split_feature": 5, "split_gain": 1282.3544921875, "threshold": 12.500000000000002, "decision_type": "<=", "default_left": true, "missing_type": "None", "internal_value": 0, "internal_weight": 0, "internal_count": 24767, "left_child": {"leaf_index": 0, "leaf_value": 0.0035804512000931223, "leaf_weight": 3117.61142128706, "leaf_count": 11457}, "right_child": {"split_index": 1, "split_feature": 6, "split_gain": 707.90869140625, "threshold": 1.0000000180025095e-35, "decision_type": "<=", "default_left": true, "missing_type": "None", "internal_value": 1.1762444652856994, "internal_weight": 4575.64970882237, "internal_count": 13310, "left_child": {"leaf_index": 1, "leaf_value": 0.023516859131314995, "leaf_weight": 529.4752984195948, "leaf_count": 1047}, "right_child": {"leaf_index": 2, "leaf_value": 0.010742055517242288, "leaf_weight": 4046.174410402775, "leaf_count": 12263}}}}, {"tree_index": 18, "num_leaves": 3, "num_cat": 0, "shrinkage": 0.010389254465734332, "tree_structure": {"split_index": 0, "split_feature": 10, "split_gain": 1265.1573486328125, "threshold": 1.0000000180025095e-35, "decision_type": "<=", "default_left": true, "missing_type": "None", "internal_value": 0, "internal_weight": 0, "internal_count": 24767, "left_child": {"leaf_index": 0, "leaf_value": 0.02523280572286473, "leaf_weight": 464.0826127678156, "leaf_count": 860}, "right_child": {"split_index": 1, "split_feature": 5, "split_gain": 1227.946044921875, "threshold": 17.500000000000004, "decision_type": "<=", "default_left": true, "missing_type": "None", "internal_value": 0.7256243695562172, "internal_weight": 7251.911760270596, "internal_count": 23907, "left_child": {"leaf_index": 1, "leaf_value": 0.0041848489942411665, "leaf_weight": 4489.103958025575, "leaf_count": 16101}, "right_child": {"leaf_index": 2, "leaf_value": 0.012988141113345106, "leaf_weight": 2762.807802245021, "leaf_count": 7806}}}}, {"tree_index": 19, "num_leaves": 3, "num_cat": 0, "shrinkage": 0.010389254465734332, "tree_structure": {"split_index": 0, "split_feature": 21, "split_gain": 1235.580078125, "threshold": 12.500000000000002, "decision_type": "<=", "default_left": true, "missing_type": "None", "internal_value": 0, "internal_weight": 0, "internal_count": 24767, "left_child": {"leaf_index": 0, "leaf_value": 0.002100136163013728, "leaf_weight": 2297.2026759386063, "leaf_count": 8616}, "right_child": {"split_index": 1, "split_feature": 6, "split_gain": 883.9815063476562, "threshold": 1.0000000180025095e-35, "decision_type": "<=", "default_left": true, "missing_type": "None", "internal_value": 1.0767647816066765, "internal_weight": 5440.763597294688, "internal_count": 16151, "left_child": {"leaf_index": 1, "leaf_value": 0.022783976895934248, "leaf_weight": 627.592283025384, "leaf_count": 1257}, "right_child": {"leaf_index": 2, "leaf_value": 0.009674618316856379, "leaf_weight": 4813.171314269304, "leaf_count": 14894}}}}, {"tree_index": 20, "num_leaves": 3, "num_cat": 0, "shrinkage": 0.010389254465734332, "tree_structure": {"split_index": 0, "split_feature": 10, "split_gain": 1206.2564697265625, "threshold": 1.0000000180025095e-35, "decision_type": "<=", "default_left": true, "missing_type": "None", "internal_value": 0, "internal_weight": 0, "internal_count": 24767, "left_child": {"leaf_index": 0, "leaf_value": 0.02452942047734324, "leaf_weight": 468.90416215360165, "leaf_count": 860}, "right_child": {"split_index": 1, "split_feature": 5, "split_gain": 1176.4727783203125, "threshold": 17.500000000000004, "decision_type": "<=", "default_left": true, "missing_type": "None", "internal_value": 0.7063617619947085, "internal_weight": 7290.711670741439, "internal_count": 23907, "left_child": {"leaf_index": 1, "leaf_value": 0.004058644871169733, "leaf_weight": 4506.956417828798, "leaf_count": 16101}, "right_child": {"leaf_index": 2, "leaf_value": 0.012648841020830085, "leaf_weight": 2783.7552529126406, "leaf_count": 7806}}}}, {"tree_index": 21, "num_leaves": 3, "num_cat": 0, "shrinkage": 0.010389254465734332, "tree_structure": {"split_index": 0, "split_feature": 21, "split_gain": 1183.4921875, "threshold": 12.500000000000002, "decision_type": "<=", "default_left": true, "missing_type": "None", "internal_value": 0, "internal_weight": 0, "internal_count": 24767, "left_child": {"leaf_index": 0, "leaf_value": 0.00201991573848291, "leaf_weight": 2303.4410495609045, "leaf_count": 8616}, "right_child": {"split_index": 1, "split_feature": 6, "split_gain": 840.6294555664062, "threshold": 1.0000000180025095e-35, "decision_type": "<=", "default_left": true, "missing_type": "None", "internal_value": 1.0487520790322373, "internal_weight": 5476.998585611582, "internal_count": 16151, "left_child": {"leaf_index": 1, "leaf_value": 0.022148271118239124, "leaf_weight": 633.6855131536722, "leaf_count": 1257}, "right_child": {"leaf_index": 2, "leaf_value": 0.009423504173528045, "leaf_weight": 4843.31307245791, "leaf_count": 14894}}}}, {"tree_index": 22, "num_leaves": 3, "num_cat": 0, "shrinkage": 0.010389254465734332, "tree_structure": {"split_index": 0, "split_feature": 6, "split_gain": 1156.636474609375, "threshold": 1.0000000180025095e-35, "decision_type": "<=", "default_left": true, "missing_type": "None", "internal_value": 0, "internal_weight": 0, "internal_count": 24767, "left_child": {"leaf_index": 0, "leaf_value": 0.0191024775887848, "leaf_weight": 919.7778527587652, "leaf_count": 2065}, "right_child": {"split_index": 1, "split_feature": 10, "split_gain": 1137.0389404296875, "threshold": 15.500000000000002, "decision_type": "<=", "default_left": true, "missing_type": "None", "internal_value": 0.6446900453173986, "internal_weight": 6881.20293417573, "internal_count": 22702, "left_child": {"leaf_index": 1, "leaf_value": 0.0029071109542008916, "leaf_weight": 3810.844748482108, "leaf_count": 13761}, "right_child": {"leaf_index": 2, "leaf_value": 0.011402809410271603, "leaf_weight": 3070.3581856936216, "leaf_count": 8941}}}}, {"tree_index": 23, "num_leaves": 3, "num_cat": 0, "shrinkage": 0.010389254465734332, "tree_structure": {"split_index": 0, "split_feature": 21, "split_gain": 1138.0015869140625, "threshold": 20.500000000000004, "decision_type": "<=", "default_left": true, "missing_type": "None", "internal_value": 0, "internal_weight": 0, "internal_count": 24767, "left_child": {"split_index": 1, "split_feature": 6, "split_gain": 784.2034301757812, "threshold": 1.0000000180025095e-35, "decision_type": "<=", "default_left": true, "missing_type": "None", "internal_value": 0.46211842093458566, "internal_weight": 4671.898620039225, "internal_count": 16228, "left_child": {"leaf_index": 0, "leaf_value": 0.016415150787754688, "leaf_weight": 553.2133977860212, "leaf_count": 1375}, "right_child": {"leaf_index": 2, "leaf_value": 0.003241085672358081, "leaf_weight": 4118.685222253203, "leaf_count": 14853}}, "right_child": {"leaf_index": 1, "leaf_value": 0.012881671663043123, "leaf_weight": 3149.1746730953455, "leaf_count": 8539}}}, {"tree_index": 24, "num_leaves": 3, "num_cat": 0, "shrinkage": 0.010389254465734332, "tree_structure": {"split_index": 0, "split_feature": 21, "split_gain": 1120.77978515625, "threshold": 12.500000000000002, "decision_type": "<=", "default_left": true, "missing_type": "None", "internal_value": 0, "internal_weight": 0, "internal_count": 24767, "left_child": {"leaf_index": 0, "leaf_value": 0.00188089730010516, "leaf_weight": 2314.163479298353, "leaf_count": 8616}, "right_child": {"split_index": 1, "split_feature": 6, "split_gain": 785.2232666015625, "threshold": 1.0000000180025095e-35, "decision_type": "<=", "default_left": true, "missing_type": "None", "internal_value": 1.0099660507578117, "internal_weight": 5526.500029578805, "internal_count": 16151, "left_child": {"leaf_index": 1, "leaf_value": 0.021297555044230206, "leaf_weight": 641.6950438171625, "leaf_count": 1257}, "right_child": {"leaf_index": 2, "leaf_value": 0.009073421075804835, "leaf_weight": 4884.8049857616425, "leaf_count": 14894}}}}, {"tree_index": 25, "num_leaves": 3, "num_cat": 0, "shrinkage": 0.010389254465734332, "tree_structure": {"split_index": 0, "split_feature": 10, "split_gain": 1098.693359375, "threshold": 1.0000000180025095e-35, "decision_type": "<=", "default_left": true, "missing_type": "None", "internal_value": 0, "internal_weight": 0, "internal_count": 24767, "left_child": {"leaf_index": 0, "leaf_value": 0.023113745616846437, "leaf_weight": 478.0030555129051, "leaf_count": 860}, "right_child": {"split_index": 1, "split_feature": 21, "split_gain": 1090.65283203125, "threshold": 22.500000000000004, "decision_type": "<=", "default_left": true, "missing_type": "None", "internal_value": 0.660374036866535, "internal_weight": 7381.652422517538, "internal_count": 23907, "left_child": {"leaf_index": 1, "leaf_value": 0.004050100396465843, "leaf_weight": 4936.355057641864, "leaf_count": 17267}, "right_child": {"leaf_index": 2, "leaf_value": 0.012534779148729844, "leaf_weight": 2445.2973648756742, "leaf_count": 6640}}}}, {"tree_index": 26, "num_leaves": 3, "num_cat": 0, "shrinkage": 0.010389254465734332, "tree_structure": {"split_index": 0, "split_feature": 21, "split_gain": 1076.755126953125, "threshold": 12.500000000000002, "decision_type": "<=", "default_left": true, "missing_type": "None", "internal_value": 0, "internal_weight": 0, "internal_count": 24767, "left_child": {"leaf_index": 0, "leaf_value": 0.0018046086441547598, "leaf_weight": 2320.017578408122, "leaf_count": 8616}, "right_child": {"split_index": 1, "split_feature": 20, "split_gain": 696.796142578125, "threshold": 1.0000000180025095e-35, "decision_type": "<=", "default_left": true, "missing_type": "None", "internal_value": 0.9847779499818827, "internal_weight": 5557.930242523551, "internal_count": 16151, "left_child": {"leaf_index": 1, "leaf_value": 0.020426227607821104, "leaf_weight": 640.2337241768837, "leaf_count": 1303}, "right_child": {"leaf_index": 2, "leaf_value": 0.008903808643713497, "leaf_weight": 4917.696518346667, "leaf_count": 14848}}}}, {"tree_index": 27, "num_leaves": 3, "num_cat": 0, "shrinkage": 0.010389254465734332, "tree_structure": {"split_index": 0, "split_feature": 13, "split_gain": 1059.8060302734375, "threshold": 3.5000000000000004, "decision_type": "<=", "default_left": true, "missing_type": "None", "internal_value": 0, "internal_weight": 0, "internal_count": 24767, "left_child": {"split_index": 1, "split_feature": 10, "split_gain": 678.1333618164062, "threshold": 1.0000000180025095e-35, "decision_type": "<=", "default_left": true, "missing_type": "None", "internal_value": 0.4662165962838782, "internal_weight": 5113.6947221159935, "internal_count": 17226, "left_child": {"leaf_index": 0, "leaf_value": 0.021801960775343725, "leaf_weight": 242.4506914615631, "leaf_count": 457}, "right_child": {"leaf_index": 2, "leaf_value": 0.003999596471727779, "leaf_weight": 4871.24403065443, "leaf_count": 16769}}, "right_child": {"leaf_index": 1, "leaf_value": 0.012811186711526559, "leaf_weight": 2782.441604182124, "leaf_count": 7541}}}, {"tree_index": 28, "num_leaves": 3, "num_cat": 0, "shrinkage": 0.010389254465734332, "tree_structure": {"split_index": 0, "split_feature": 21, "split_gain": 1038.494384765625, "threshold": 12.500000000000002, "decision_type": "<=", "default_left": true, "missing_type": "None", "internal_value": 0, "internal_weight": 0, "internal_count": 24767, "left_child": {"leaf_index": 0, "leaf_value": 0.0017216878380018777, "leaf_weight": 2326.408819809556, "leaf_count": 8616}, "right_child": {"split_index": 1, "split_feature": 6, "split_gain": 728.7601928710938, "threshold": 1.0000000180025095e-35, "decision_type": "<=", "default_left": true, "missing_type": "None", "internal_value": 0.9608542470135104, "internal_weight": 5587.878241226077, "internal_count": 16151, "left_child": {"leaf_index": 1, "leaf_value": 0.020324690114604187, "leaf_weight": 649.8855236321688, "leaf_count": 1257}, "right_child": {"leaf_index": 2, "leaf_value": 0.008621439182073514, "leaf_weight": 4937.992717593908, "leaf_count": 14894}}}}, {"tree_index": 29, "num_leaves": 3, "num_cat": 0, "shrinkage": 0.010389254465734332, "tree_structure": {"split_index": 0, "split_feature": 21, "split_gain": 1022.1671142578125, "threshold": 21.500000000000004, "decision_type": "<=", "default_left": true, "missing_type": "None", "internal_value": 0, "internal_weight": 0, "internal_count": 24767, "left_child": {"split_index": 1, "split_feature": 10, "split_gain": 796.6780395507812, "threshold": 1.0000000180025095e-35, "decision_type": "<=", "default_left": true, "missing_type": "None", "internal_value": 0.44333307987476883, "internal_weight": 5002.682745575905, "internal_count": 17038, "left_child": {"leaf_index": 0, "leaf_value": 0.02170606368364926, "leaf_weight": 277.74377466738224, "leaf_count": 515}, "right_child": {"leaf_index": 2, "leaf_value": 0.0036007096391925484, "leaf_weight": 4724.938970908523, "leaf_count": 16523}}, "right_child": {"leaf_index": 1, "leaf_value": 0.012334160315998002, "leaf_weight": 2928.6814114898443, "leaf_count": 7729}}}, {"tree_index": 30, "num_leaves": 3, "num_cat": 0, "shrinkage": 0.010389254465734332, "tree_structure": {"split_index": 0, "split_feature": 6, "split_gain": 1006.2776489257812, "threshold": 1.0000000180025095e-35, "decision_type": "<=", "default_left": true, "missing_type": "None", "internal_value": 0, "internal_weight": 0, "internal_count": 24767, "left_child": {"leaf_index": 0, "leaf_value": 0.01744404710504758, "leaf_weight": 942.6471509188414, "leaf_count": 2065}, "right_child": {"split_index": 1, "split_feature": 10, "split_gain": 1003.5630493164062, "threshold": 15.500000000000002, "decision_type": "<=", "default_left": true, "missing_type": "None", "internal_value": 0.5785265572471079, "internal_weight": 7005.384112998843, "internal_count": 22702, "left_child": {"leaf_index": 1, "leaf_value": 0.0024645576841585584, "leaf_weight": 3863.648790359497, "leaf_count": 13761}, "right_child": {"leaf_index": 2, "leaf_value": 0.010371145135228991, "leaf_weight": 3141.735322639346, "leaf_count": 8941}}}}, {"tree_index": 31, "num_leaves": 3, "num_cat": 1, "shrinkage": 0.010389254465734332, "tree_structure": {"split_index": 0, "split_feature": 13, "split_gain": 988.309814453125, "threshold": 3.5000000000000004, "decision_type": "<=", "default_left": true, "missing_type": "None", "internal_value": 0, "internal_weight": 0, "internal_count": 24767, "left_child": {"split_index": 1, "split_feature": 1, "split_gain": 632.02880859375, "threshold": "0||6", "decision_type": "==", "default_left": false, "missing_type": "None", "internal_value": 0.439823190586644, "internal_weight": 5149.841533124447, "internal_count": 17226, "left_child": {"leaf_index": 0, "leaf_value": 0.007923881581150878, "leaf_weight": 2774.6919405311346, "leaf_count": 8699}, "right_child": {"leaf_index": 2, "leaf_value": 0.0006147611099211126, "leaf_weight": 2375.1495925933123, "leaf_count": 8527}}, "right_child": {"leaf_index": 1, "leaf_value": 0.012225606705495906, "leaf_weight": 2814.4329214543104, "leaf_count": 7541}}}, {"tree_index": 32, "num_leaves": 3, "num_cat": 0, "shrinkage": 0.010389254465734332, "tree_structure": {"split_index": 0, "split_feature": 6, "split_gain": 978.3973999023438, "threshold": 1.0000000180025095e-35, "decision_type": "<=", "default_left": true, "missing_type": "None", "internal_value": 0, "internal_weight": 0, "internal_count": 24767, "left_child": {"leaf_index": 0, "leaf_value": 0.01709624510668704, "leaf_weight": 947.2768794745207, "leaf_count": 2065}, "right_child": {"split_index": 1, "split_feature": 21, "split_gain": 932.643310546875, "threshold": 22.500000000000004, "decision_type": "<=", "default_left": true, "missing_type": "None", "internal_value": 0.5630043753508719, "internal_weight": 7033.989791706204, "internal_count": 22702, "left_child": {"leaf_index": 1, "leaf_value": 0.0031551035781135165, "leaf_weight": 4667.058981448412, "leaf_count": 16313}, "right_child": {"leaf_index": 2, "leaf_value": 0.01116134378916734, "leaf_weight": 2366.9308102577925, "leaf_count": 6389}}}}, {"tree_index": 33, "num_leaves": 3, "num_cat": 0, "shrinkage": 0.010389254465734332, "tree_structure": {"split_index": 0, "split_feature": 10, "split_gain": 967.4979858398438, "threshold": 1.0000000180025095e-35, "decision_type": "<=", "default_left": true, "missing_type": "None", "internal_value": 0, "internal_weight": 0, "internal_count": 24767, "left_child": {"leaf_index": 0, "leaf_value": 0.021270456660935518, "leaf_weight": 488.02892196178436, "leaf_count": 860}, "right_child": {"split_index": 1, "split_feature": 21, "split_gain": 948.5689086914062, "threshold": 22.500000000000004, "decision_type": "<=", "default_left": true, "missing_type": "None", "internal_value": 0.5943152513811822, "internal_weight": 7508.470909878612, "internal_count": 23907, "left_child": {"leaf_index": 1, "leaf_value": 0.003564466732913557, "leaf_weight": 5007.0555364489555, "leaf_count": 17267}, "right_child": {"leaf_index": 2, "leaf_value": 0.011398951900527409, "leaf_weight": 2501.415373429656, "leaf_count": 6640}}}}, {"tree_index": 34, "num_leaves": 3, "num_cat": 0, "shrinkage": 0.010389254465734332, "tree_structure": {"split_index": 0, "split_feature": 5, "split_gain": 947.2952270507812, "threshold": 12.500000000000002, "decision_type": "<=", "default_left": true, "missing_type": "None", "internal_value": 0, "internal_weight": 0, "internal_count": 24767, "left_child": {"leaf_index": 0, "leaf_value": 0.0026403196113336373, "leaf_weight": 3210.319596260786, "leaf_count": 11457}, "right_child": {"split_index": 1, "split_feature": 17, "split_gain": 525.3949584960938, "threshold": 86.50000000000001, "decision_type": "<=", "default_left": true, "missing_type": "None", "internal_value": 0.9558490552970152, "internal_weight": 4800.851001784205, "internal_count": 13310, "left_child": {"leaf_index": 1, "leaf_value": 0.019803773025034378, "leaf_weight": 518.8758916407824, "leaf_count": 977}, "right_child": {"leaf_index": 2, "leaf_value": 0.008734154938680697, "leaf_weight": 4281.975110143423, "leaf_count": 12333}}}}, {"tree_index": 35, "num_leaves": 3, "num_cat": 0, "shrinkage": 0.010389254465734332, "tree_structure": {"split_index": 0, "split_feature": 21, "split_gain": 935.5230102539062, "threshold": 12.500000000000002, "decision_type": "<=", "default_left": true, "missing_type": "None", "internal_value": 0, "internal_weight": 0, "internal_count": 24767, "left_child": {"leaf_index": 0, "leaf_value": 0.0014107846961375738, "leaf_weight": 2349.8325384408236, "leaf_count": 8616}, "right_child": {"split_index": 1, "split_feature": 6, "split_gain": 652.3887329101562, "threshold": 1.0000000180025095e-35, "decision_type": "<=", "default_left": true, "missing_type": "None", "internal_value": 0.8860883281926056, "internal_weight": 5676.018897652626, "internal_count": 16151, "left_child": {"leaf_index": 1, "leaf_value": 0.018916533389834622, "leaf_weight": 659.9225325584412, "leaf_count": 1257}, "right_child": {"leaf_index": 2, "leaf_value": 0.007928243181291822, "leaf_weight": 5016.096365094185, "leaf_count": 14894}}}}, {"tree_index": 36, "num_leaves": 3, "num_cat": 0, "shrinkage": 0.010389254465734332, "tree_structure": {"split_index": 0, "split_feature": 10, "split_gain": 922.79150390625, "threshold": 1.0000000180025095e-35, "decision_type": "<=", "default_left": true, "missing_type": "None", "internal_value": 0, "internal_weight": 0, "internal_count": 24767, "left_child": {"leaf_index": 0, "leaf_value": 0.020648639671606083, "leaf_weight": 490.45934587717056, "leaf_count": 860}, "right_child": {"split_index": 1, "split_feature": 21, "split_gain": 902.3579711914062, "threshold": 22.500000000000004, "decision_type": "<=", "default_left": true, "missing_type": "None", "internal_value": 0.5719729583747695, "internal_weight": 7549.531780093908, "internal_count": 23907, "left_child": {"leaf_index": 1, "leaf_value": 0.003400446905427276, "leaf_weight": 5030.207826927304, "leaf_count": 17267}, "right_child": {"leaf_index": 2, "leaf_value": 0.01101770822700083, "leaf_weight": 2519.323953166604, "leaf_count": 6640}}}}, {"tree_index": 37, "num_leaves": 3, "num_cat": 0, "shrinkage": 0.010389254465734332, "tree_structure": {"split_index": 0, "split_feature": 13, "split_gain": 907.7575073242188, "threshold": 3.5000000000000004, "decision_type": "<=", "default_left": true, "missing_type": "None", "internal_value": 0, "internal_weight": 0, "internal_count": 24767, "left_child": {"split_index": 1, "split_feature": 21, "split_gain": 392.0050354003906, "threshold": 11.500000000000002, "decision_type": "<=", "default_left": true, "missing_type": "None", "internal_value": 0.40173147961463934, "internal_weight": 5200.6511605829, "internal_count": 17226, "left_child": {"leaf_index": 0, "leaf_value": 0.00034920603990738487, "leaf_weight": 1858.83114592731, "leaf_count": 6924}, "right_child": {"leaf_index": 2, "leaf_value": 0.006300995728045694, "leaf_weight": 3341.82001465559, "leaf_count": 10302}}, "right_child": {"leaf_index": 1, "leaf_value": 0.011466518412504114, "leaf_weight": 2852.7967702150345, "leaf_count": 7541}}}, {"tree_index": 38, "num_leaves": 3, "num_cat": 0, "shrinkage": 0.010389254465734332, "tree_structure": {"split_index": 0, "split_feature": 10, "split_gain": 900.7420043945312, "threshold": 1.0000000180025095e-35, "decision_type": "<=", "default_left": true, "missing_type": "None", "internal_value": 0, "internal_weight": 0, "internal_count": 24767, "left_child": {"leaf_index": 0, "leaf_value": 0.02030103835324917, "leaf_weight": 491.71781945228577, "leaf_count": 860}, "right_child": {"split_index": 1, "split_feature": 5, "split_gain": 870.6634521484375, "threshold": 14.500000000000002, "decision_type": "<=", "default_left": true, "missing_type": "None", "internal_value": 0.5573596071096526, "internal_weight": 7575.98773214221, "internal_count": 23907, "left_child": {"leaf_index": 1, "leaf_value": 0.002195186632240561, "leaf_weight": 3709.915485098958, "leaf_count": 13226}, "right_child": {"leaf_index": 2, "leaf_value": 0.009240692507425976, "leaf_weight": 3866.072247043252, "leaf_count": 10681}}}}, {"tree_index": 39, "num_leaves": 3, "num_cat": 0, "shrinkage": 0.010389254465734332, "tree_structure": {"split_index": 0, "split_feature": 10, "split_gain": 880.472412109375, "threshold": 1.0000000180025095e-35, "decision_type": "<=", "default_left": true, "missing_type": "None", "internal_value": 0, "internal_weight": 0, "internal_count": 24767, "left_child": {"leaf_index": 0, "leaf_value": 0.020055564983842956, "leaf_weight": 492.5606559216976, "leaf_count": 860}, "right_child": {"split_index": 1, "split_feature": 21, "split_gain": 853.8718872070312, "threshold": 12.500000000000002, "decision_type": "<=", "default_left": true, "missing_type": "None", "internal_value": 0.5507112714560725, "internal_weight": 7587.707872658968, "internal_count": 23907, "left_child": {"leaf_index": 1, "leaf_value": 0.00033129585196392845, "leaf_weight": 2236.960067078471, "leaf_count": 8374}, "right_child": {"leaf_index": 2, "leaf_value": 0.007974926361721682, "leaf_weight": 5350.747805580497, "leaf_count": 15533}}}}, {"tree_index": 40, "num_leaves": 3, "num_cat": 0, "shrinkage": 0.010389254465734332, "tree_structure": {"split_index": 0, "split_feature": 6, "split_gain": 873.9740600585938, "threshold": 1.0000000180025095e-35, "decision_type": "<=", "default_left": true, "missing_type": "None", "internal_value": 0, "internal_weight": 0, "internal_count": 24767, "left_child": {"leaf_index": 0, "leaf_value": 0.015824075061440228, "leaf_weight": 959.8091016113758, "leaf_count": 2065}, "right_child": {"split_index": 1, "split_feature": 10, "split_gain": 866.11767578125, "threshold": 15.500000000000002, "decision_type": "<=", "default_left": true, "missing_type": "None", "internal_value": 0.5067045158672838, "internal_weight": 7132.823896557093, "internal_count": 22702, "left_child": {"leaf_index": 1, "leaf_value": 0.001985628875805496, "leaf_weight": 3918.75601144135, "leaf_count": 13761}, "right_child": {"leaf_index": 2, "leaf_value": 0.009261783981782611, "leaf_weight": 3214.0678851157427, "leaf_count": 8941}}}}, {"tree_index": 41, "num_leaves": 3, "num_cat": 1, "shrinkage": 0.010389254465734332, "tree_structure": {"split_index": 0, "split_feature": 13, "split_gain": 851.8428344726562, "threshold": 3.5000000000000004, "decision_type": "<=", "default_left": true, "missing_type": "None", "internal_value": 0, "internal_weight": 0, "internal_count": 24767, "left_child": {"split_index": 1, "split_feature": 1, "split_gain": 601.5821533203125, "threshold": "0||6", "decision_type": "==", "default_left": false, "missing_type": "None", "internal_value": 0.37933615914878777, "internal_weight": 5228.599842354655, "internal_count": 17226, "left_child": {"leaf_index": 0, "leaf_value": 0.007184415505460569, "leaf_weight": 2820.751775801182, "leaf_count": 8699}, "right_child": {"leaf_index": 2, "leaf_value": 0.00011113973840090431, "leaf_weight": 2407.8480665534735, "leaf_count": 8527}}, "right_child": {"leaf_index": 1, "leaf_value": 0.010980282907126219, "leaf_weight": 2876.3197861611843, "leaf_count": 7541}}}, {"tree_index": 42, "num_leaves": 3, "num_cat": 0, "shrinkage": 0.010389254465734332, "tree_structure": {"split_index": 0, "split_feature": 10, "split_gain": 847.01416015625, "threshold": 1.0000000180025095e-35, "decision_type": "<=", "default_left": true, "missing_type": "None", "internal_value": 0, "internal_weight": 0, "internal_count": 24767, "left_child": {"leaf_index": 0, "leaf_value": 0.01954562029632603, "leaf_weight": 493.9862263202667, "leaf_count": 860}, "right_child": {"split_index": 1, "split_feature": 5, "split_gain": 820.2308349609375, "threshold": 17.500000000000004, "decision_type": "<=", "default_left": true, "missing_type": "None", "internal_value": 0.5301285231021093, "internal_weight": 7624.222413420677, "internal_count": 23907, "left_child": {"leaf_index": 1, "leaf_value": 0.0028029775036321146, "leaf_weight": 4677.535505861044, "leaf_count": 16101}, "right_child": {"leaf_index": 2, "leaf_value": 0.009800989180302077, "leaf_weight": 2946.6869075596333, "leaf_count": 7806}}}}, {"tree_index": 43, "num_leaves": 3, "num_cat": 0, "shrinkage": 0.010389254465734332, "tree_structure": {"split_index": 0, "split_feature": 6, "split_gain": 840.3270874023438, "threshold": 1.0000000180025095e-35, "decision_type": "<=", "default_left": true, "missing_type": "None", "internal_value": 0, "internal_weight": 0, "internal_count": 24767, "left_child": {"leaf_index": 0, "leaf_value": 0.015396007716508115, "leaf_weight": 963.5700708627701, "leaf_count": 2065}, "right_child": {"split_index": 1, "split_feature": 20, "split_gain": 825.8765258789062, "threshold": 6.500000000000001, "decision_type": "<=", "default_left": true, "missing_type": "None", "internal_value": 0.487247869931463, "internal_weight": 7165.859047308564, "internal_count": 22702, "left_child": {"leaf_index": 1, "leaf_value": 0.0011261439779287879, "leaf_weight": 3191.410846441984, "leaf_count": 11344}, "right_child": {"leaf_index": 2, "leaf_value": 0.008222678236129956, "leaf_weight": 3974.44820086658, "leaf_count": 11358}}}}, {"tree_index": 44, "num_leaves": 3, "num_cat": 0, "shrinkage": 0.010389254465734332, "tree_structure": {"split_index": 0, "split_feature": 10, "split_gain": 816.86962890625, "threshold": 1.0000000180025095e-35, "decision_type": "<=", "default_left": true, "missing_type": "None", "internal_value": 0, "internal_weight": 0, "internal_count": 24767, "left_child": {"leaf_index": 0, "leaf_value": 0.019149260713085522, "leaf_weight": 494.8377869129181, "leaf_count": 860}, "right_child": {"split_index": 1, "split_feature": 21, "split_gain": 798.3390502929688, "threshold": 22.500000000000004, "decision_type": "<=", "default_left": true, "missing_type": "None", "internal_value": 0.5174272649452808, "internal_weight": 7645.994322955608, "internal_count": 23907, "left_child": {"leaf_index": 1, "leaf_value": 0.0029941529762245564, "leaf_weight": 5086.284302413464, "leaf_count": 17267}, "right_child": {"leaf_index": 2, "leaf_value": 0.010107915431601585, "leaf_weight": 2559.710020542145, "leaf_count": 6640}}}}, {"tree_index": 45, "num_leaves": 3, "num_cat": 0, "shrinkage": 0.010389254465734332, "tree_structure": {"split_index": 0, "split_feature": 6, "split_gain": 809.4735107421875, "threshold": 1.0000000180025095e-35, "decision_type": "<=", "default_left": true, "missing_type": "None", "internal_value": 0, "internal_weight": 0, "internal_count": 24767, "left_child": {"leaf_index": 0, "leaf_value": 0.015068814051968058, "leaf_weight": 966.1113557070494, "leaf_count": 2065}, "right_child": {"split_index": 1, "split_feature": 10, "split_gain": 797.247314453125, "threshold": 15.500000000000002, "decision_type": "<=", "default_left": true, "missing_type": "None", "internal_value": 0.47547464077528456, "internal_weight": 7185.31389786303, "internal_count": 22702, "left_child": {"leaf_index": 1, "leaf_value": 0.001799099043199412, "leaf_weight": 3940.0652309805155, "leaf_count": 13761}, "right_child": {"leaf_index": 2, "leaf_value": 0.008752993430189666, "leaf_weight": 3245.248666882515, "leaf_count": 8941}}}}, {"tree_index": 46, "num_leaves": 3, "num_cat": 0, "shrinkage": 0.010389254465734332, "tree_structure": {"split_index": 0, "split_feature": 21, "split_gain": 794.1077270507812, "threshold": 12.500000000000002, "decision_type": "<=", "default_left": true, "missing_type": "None", "internal_value": 0, "internal_weight": 0, "internal_count": 24767, "left_child": {"leaf_index": 0, "leaf_value": 0.0010138935618305917, "leaf_weight": 2377.5262467861176, "leaf_count": 8616}, "right_child": {"split_index": 1, "split_feature": 10, "split_gain": 523.2372436523438, "threshold": 1.5000000000000002, "decision_type": "<=", "default_left": true, "missing_type": "None", "internal_value": 0.7840949862656986, "internal_weight": 5784.483658671379, "internal_count": 16151, "left_child": {"leaf_index": 1, "leaf_value": 0.019043461753157045, "leaf_weight": 439.45565339922905, "leaf_count": 756}, "right_child": {"leaf_index": 2, "leaf_value": 0.007250211964635311, "leaf_weight": 5345.02800527215, "leaf_count": 15395}}}}, {"tree_index": 47, "num_leaves": 3, "num_cat": 0, "shrinkage": 0.010389254465734332, "tree_structure": {"split_index": 0, "split_feature": 6, "split_gain": 783.5634765625, "threshold": 1.0000000180025095e-35, "decision_type": "<=", "default_left": true, "missing_type": "None", "internal_value": 0, "internal_weight": 0, "internal_count": 24767, "left_child": {"leaf_index": 0, "leaf_value": 0.014773913969814546, "leaf_weight": 968.0292912721634, "leaf_count": 2065}, "right_child": {"split_index": 1, "split_feature": 10, "split_gain": 770.7918701171875, "threshold": 15.500000000000002, "decision_type": "<=", "default_left": true, "missing_type": "None", "internal_value": 0.4638085467415395, "internal_weight": 7204.409368574619, "internal_count": 22702, "left_child": {"leaf_index": 1, "leaf_value": 0.0017319546348326137, "leaf_weight": 3947.543303966522, "leaf_count": 13761}, "right_child": {"leaf_index": 2, "leaf_value": 0.008559879568465335, "leaf_weight": 3256.866064608097, "leaf_count": 8941}}}}, {"tree_index": 48, "num_leaves": 3, "num_cat": 1, "shrinkage": 0.010389254465734332, "tree_structure": {"split_index": 0, "split_feature": 13, "split_gain": 773.0405883789062, "threshold": 3.5000000000000004, "decision_type": "<=", "default_left": true, "missing_type": "None", "internal_value": 0, "internal_weight": 0, "internal_count": 24767, "left_child": {"split_index": 1, "split_feature": 1, "split_gain": 578.7437133789062, "threshold": "0||6", "decision_type": "==", "default_left": false, "missing_type": "None", "internal_value": 0.3423100035193803, "internal_weight": 5273.172833532095, "internal_count": 17226, "left_child": {"leaf_index": 0, "leaf_value": 0.006720773988493976, "leaf_weight": 2847.6484194993973, "leaf_count": 8699}, "right_child": {"leaf_index": 2, "leaf_value": -0.00018574375972183968, "leaf_weight": 2425.5244140326977, "leaf_count": 8527}}, "right_child": {"leaf_index": 1, "leaf_value": 0.01022750877948984, "leaf_weight": 2909.2171220332384, "leaf_count": 7541}}}, {"tree_index": 49, "num_leaves": 3, "num_cat": 0, "shrinkage": 0.010389254465734332, "tree_structure": {"split_index": 0, "split_feature": 6, "split_gain": 765.6701049804688, "threshold": 1.0000000180025095e-35, "decision_type": "<=", "default_left": true, "missing_type": "None", "internal_value": 0, "internal_weight": 0, "internal_count": 24767, "left_child": {"leaf_index": 0, "leaf_value": 0.014526445859632408, "leaf_weight": 969.8161884695292, "leaf_count": 2065}, "right_child": {"split_index": 1, "split_feature": 20, "split_gain": 756.9265747070312, "threshold": 6.500000000000001, "decision_type": "<=", "default_left": true, "missing_type": "None", "internal_value": 0.4519126278462756, "internal_weight": 7223.696164399385, "internal_count": 22702, "left_child": {"leaf_index": 1, "leaf_value": 0.0009337937101479334, "leaf_weight": 3209.3431977182627, "leaf_count": 11344}, "right_child": {"leaf_index": 2, "leaf_value": 0.007702024251260116, "leaf_weight": 4014.352966681123, "leaf_count": 11358}}}}, {"tree_index": 50, "num_leaves": 3, "num_cat": 0, "shrinkage": 0.010389254465734332, "tree_structure": {"split_index": 0, "split_feature": 21, "split_gain": 753.3512573242188, "threshold": 12.500000000000002, "decision_type": "<=", "default_left": true, "missing_type": "None", "internal_value": 0, "internal_weight": 0, "internal_count": 24767, "left_child": {"leaf_index": 0, "leaf_value": 0.0008766155744957138, "leaf_weight": 2387.0554755181074, "leaf_count": 8616}, "right_child": {"split_index": 1, "split_feature": 6, "split_gain": 535.7086791992188, "threshold": 1.0000000180025095e-35, "decision_type": "<=", "default_left": true, "missing_type": "None", "internal_value": 0.751557755893907, "internal_weight": 5815.973846703768, "internal_count": 16151, "left_child": {"leaf_index": 1, "leaf_value": 0.01655729681339705, "leaf_weight": 668.5460806041956, "leaf_count": 1257}, "right_child": {"leaf_index": 2, "leaf_value": 0.006671785430396672, "leaf_weight": 5147.427766099572, "leaf_count": 14894}}}}, {"tree_index": 51, "num_leaves": 3, "num_cat": 0, "shrinkage": 0.010389254465734332, "tree_structure": {"split_index": 0, "split_feature": 10, "split_gain": 750.1978759765625, "threshold": 1.0000000180025095e-35, "decision_type": "<=", "default_left": true, "missing_type": "None", "internal_value": 0, "internal_weight": 0, "internal_count": 24767, "left_child": {"leaf_index": 0, "leaf_value": 0.018121112601549146, "leaf_weight": 495.141737729311, "leaf_count": 860}, "right_child": {"split_index": 1, "split_feature": 21, "split_gain": 731.089111328125, "threshold": 22.500000000000004, "decision_type": "<=", "default_left": true, "missing_type": "None", "internal_value": 0.47444106645656214, "internal_weight": 7717.047526493669, "internal_count": 23907, "left_child": {"leaf_index": 1, "leaf_value": 0.002658571184139578, "leaf_weight": 5130.495468854904, "leaf_count": 17267}, "right_child": {"leaf_index": 2, "leaf_value": 0.009432721968860932, "leaf_weight": 2586.5520576387644, "leaf_count": 6640}}}}, {"tree_index": 52, "num_leaves": 3, "num_cat": 0, "shrinkage": 0.010389254465734332, "tree_structure": {"split_index": 0, "split_feature": 10, "split_gain": 735.6510009765625, "threshold": 1.0000000180025095e-35, "decision_type": "<=", "default_left": true, "missing_type": "None", "internal_value": 0, "internal_weight": 0, "internal_count": 24767, "left_child": {"leaf_index": 0, "leaf_value": 0.017936825441537498, "leaf_weight": 495.0324326455593, "leaf_count": 860}, "right_child": {"split_index": 1, "split_feature": 5, "split_gain": 719.9824829101562, "threshold": 10.500000000000002, "decision_type": "<=", "default_left": true, "missing_type": "None", "internal_value": 0.4689858003279875, "internal_weight": 7725.6496232151985, "internal_count": 23907, "left_child": {"leaf_index": 1, "leaf_value": 0.00017416350307135608, "leaf_weight": 2418.495425373316, "leaf_count": 8853}, "right_child": {"leaf_index": 2, "leaf_value": 0.007013427393902499, "leaf_weight": 5307.154197841883, "leaf_count": 15054}}}}, {"tree_index": 53, "num_leaves": 3, "num_cat": 0, "shrinkage": 0.010389254465734332, "tree_structure": {"split_index": 0, "split_feature": 13, "split_gain": 726.5424194335938, "threshold": 3.5000000000000004, "decision_type": "<=", "default_left": true, "missing_type": "None", "internal_value": 0, "internal_weight": 0, "internal_count": 24767, "left_child": {"split_index": 1, "split_feature": 10, "split_gain": 466.15533447265625, "threshold": 1.0000000180025095e-35, "decision_type": "<=", "default_left": true, "missing_type": "None", "internal_value": 0.31768479382325054, "internal_weight": 5301.211747124791, "internal_count": 17226, "left_child": {"leaf_index": 0, "leaf_value": 0.017107482423959697, "leaf_weight": 251.42049790918827, "leaf_count": 457}, "right_child": {"leaf_index": 2, "leaf_value": 0.00261308245124381, "leaf_weight": 5049.791249215603, "leaf_count": 16769}}, "right_child": {"leaf_index": 1, "leaf_value": 0.009748621780090064, "leaf_weight": 2927.752899900079, "leaf_count": 7541}}}, {"tree_index": 54, "num_leaves": 3, "num_cat": 1, "shrinkage": 0.010389254465734332, "tree_structure": {"split_index": 0, "split_feature": 0, "split_gain": 732.7166137695312, "threshold": "0", "decision_type": "==", "default_left": false, "missing_type": "None", "internal_value": 0, "internal_weight": 0, "internal_count": 24767, "left_child": {"leaf_index": 0, "leaf_value": 0.009744507103268841, "leaf_weight": 2890.766911417246, "leaf_count": 7868}, "right_child": {"split_index": 1, "split_feature": 5, "split_gain": 511.81982421875, "threshold": 12.500000000000002, "decision_type": "<=", "default_left": true, "missing_type": "None", "internal_value": 0.3130434945160865, "internal_weight": 5347.168280005455, "internal_count": 16899, "left_child": {"leaf_index": 1, "leaf_value": -0.0004946853141666071, "leaf_weight": 2266.7703405469656, "leaf_count": 8236}, "right_child": {"leaf_index": 2, "leaf_value": 0.006009571617523836, "leaf_weight": 3080.3979394584894, "leaf_count": 8663}}}}, {"tree_index": 55, "num_leaves": 3, "num_cat": 0, "shrinkage": 0.010389254465734332, "tree_structure": {"split_index": 0, "split_feature": 6, "split_gain": 714.708984375, "threshold": 1.0000000180025095e-35, "decision_type": "<=", "default_left": true, "missing_type": "None", "internal_value": 0, "internal_weight": 0, "internal_count": 24767, "left_child": {"leaf_index": 0, "leaf_value": 0.013835204805600826, "leaf_weight": 971.7454245388508, "leaf_count": 2065}, "right_child": {"split_index": 1, "split_feature": 20, "split_gain": 703.0748291015625, "threshold": 6.500000000000001, "decision_type": "<=", "default_left": true, "missing_type": "None", "internal_value": 0.41860010815798915, "internal_weight": 7275.6924113333225, "internal_count": 22702, "left_child": {"leaf_index": 1, "leaf_value": 0.0007318583988262756, "leaf_weight": 3227.3905683010817, "leaf_count": 11344}, "right_child": {"leaf_index": 2, "leaf_value": 0.007232558276808814, "leaf_weight": 4048.301843032241, "leaf_count": 11358}}}}, {"tree_index": 56, "num_leaves": 3, "num_cat": 2, "shrinkage": 0.010389254465734332, "tree_structure": {"split_index": 0, "split_feature": 0, "split_gain": 712.4797973632812, "threshold": "0", "decision_type": "==", "default_left": false, "missing_type": "None", "internal_value": 0, "internal_weight": 0, "internal_count": 24767, "left_child": {"leaf_index": 0, "leaf_value": 0.009552460164616968, "leaf_weight": 2899.8163234442472, "leaf_count": 7868}, "right_child": {"split_index": 1, "split_feature": 1, "split_gain": 565.3602905273438, "threshold": "0||4||6", "decision_type": "==", "default_left": false, "missing_type": "None", "internal_value": 0.3040412637468341, "internal_weight": 5355.509809240699, "internal_count": 16899, "left_child": {"leaf_index": 1, "leaf_value": 0.006511407706322443, "leaf_weight": 2686.023939102888, "leaf_count": 7892}, "right_child": {"leaf_index": 2, "leaf_value": -0.00023815384827951218, "leaf_weight": 2669.4858701378107, "leaf_count": 9007}}}}, {"tree_index": 57, "num_leaves": 3, "num_cat": 0, "shrinkage": 0.010389254465734332, "tree_structure": {"split_index": 0, "split_feature": 10, "split_gain": 704.1182250976562, "threshold": 1.0000000180025095e-35, "decision_type": "<=", "default_left": true, "missing_type": "None", "internal_value": 0, "internal_weight": 0, "internal_count": 24767, "left_child": {"leaf_index": 0, "leaf_value": 0.01736757083208008, "leaf_weight": 494.1206374913454, "leaf_count": 860}, "right_child": {"split_index": 1, "split_feature": 21, "split_gain": 683.7390747070312, "threshold": 22.500000000000004, "decision_type": "<=", "default_left": true, "missing_type": "None", "internal_value": 0.44058972354184883, "internal_weight": 7771.260120511055, "internal_count": 23907, "left_child": {"leaf_index": 1, "leaf_value": 0.002388857887029261, "leaf_weight": 5165.820979267359, "leaf_count": 17267}, "right_child": {"leaf_index": 2, "leaf_value": 0.008916632834269125, "leaf_weight": 2605.439141243696, "leaf_count": 6640}}}}, {"tree_index": 58, "num_leaves": 3, "num_cat": 0, "shrinkage": 0.010389254465734332, "tree_structure": {"split_index": 0, "split_feature": 10, "split_gain": 691.1334838867188, "threshold": 1.0000000180025095e-35, "decision_type": "<=", "default_left": true, "missing_type": "None", "internal_value": 0, "internal_weight": 0, "internal_count": 24767, "left_child": {"leaf_index": 0, "leaf_value": 0.017201971125706334, "leaf_weight": 493.6966225653887, "leaf_count": 860}, "right_child": {"split_index": 1, "split_feature": 21, "split_gain": 673.1554565429688, "threshold": 12.500000000000002, "decision_type": "<=", "default_left": true, "missing_type": "None", "internal_value": 0.4355965965398611, "internal_weight": 7778.628756925464, "internal_count": 23907, "left_child": {"leaf_index": 1, "leaf_value": -0.00022217553808764705, "leaf_weight": 2279.013786315918, "leaf_count": 8374}, "right_child": {"leaf_index": 2, "leaf_value": 0.00649294751429356, "leaf_weight": 5499.614970609546, "leaf_count": 15533}}}}, {"tree_index": 59, "num_leaves": 3, "num_cat": 0, "shrinkage": 0.010389254465734332, "tree_structure": {"split_index": 0, "split_feature": 6, "split_gain": 682.559326171875, "threshold": 1.0000000180025095e-35, "decision_type": "<=", "default_left": true, "missing_type": "None", "internal_value": 0, "internal_weight": 0, "internal_count": 24767, "left_child": {"leaf_index": 0, "leaf_value": 0.013401351352833924, "leaf_weight": 972.1228182166815, "leaf_count": 2065}, "right_child": {"split_index": 1, "split_feature": 20, "split_gain": 670.6665649414062, "threshold": 6.500000000000001, "decision_type": "<=", "default_left": true, "missing_type": "None", "internal_value": 0.3979909001939724, "internal_weight": 7306.953119307756, "internal_count": 22702, "left_child": {"leaf_index": 1, "leaf_value": 0.0006070509415887641, "leaf_weight": 3238.5917005240917, "leaf_count": 11344}, "right_child": {"leaf_index": 2, "leaf_value": 0.006943092486121498, "leaf_weight": 4068.3614187836647, "leaf_count": 11358}}}}, {"tree_index": 60, "num_leaves": 3, "num_cat": 0, "shrinkage": 0.010389254465734332, "tree_structure": {"split_index": 0, "split_feature": 13, "split_gain": 678.9119873046875, "threshold": 3.5000000000000004, "decision_type": "<=", "default_left": true, "missing_type": "None", "internal_value": 0, "internal_weight": 0, "internal_count": 24767, "left_child": {"split_index": 1, "split_feature": 10, "split_gain": 427.87359619140625, "threshold": 1.0000000180025095e-35, "decision_type": "<=", "default_left": true, "missing_type": "None", "internal_value": 0.284341184266656, "internal_weight": 5337.666432708502, "internal_count": 17226, "left_child": {"leaf_index": 0, "leaf_value": 0.01619423838369964, "leaf_weight": 251.0588559359312, "leaf_count": 457}, "right_child": {"leaf_index": 2, "leaf_value": 0.002300601230160085, "leaf_weight": 5086.607576772571, "leaf_count": 16769}}, "right_child": {"leaf_index": 1, "leaf_value": 0.009165640879603231, "leaf_weight": 2948.3275184333324, "leaf_count": 7541}}}, {"tree_index": 61, "num_leaves": 3, "num_cat": 2, "shrinkage": 0.010389254465734332, "tree_structure": {"split_index": 0, "split_feature": 3, "split_gain": 671.7915649414062, "threshold": "0", "decision_type": "==", "default_left": false, "missing_type": "None", "internal_value": 0, "internal_weight": 0, "internal_count": 24767, "left_child": {"leaf_index": 0, "leaf_value": 0.009056525466727769, "leaf_weight": 2977.976007089019, "leaf_count": 8059}, "right_child": {"split_index": 1, "split_feature": 1, "split_gain": 553.7017211914062, "threshold": "0||4||6", "decision_type": "==", "default_left": false, "missing_type": "None", "internal_value": 0.27844586836005414, "internal_weight": 5315.308036446571, "internal_count": 16708, "left_child": {"leaf_index": 1, "leaf_value": 0.006225743033955711, "leaf_weight": 2663.8872562795877, "leaf_count": 7787}, "right_child": {"leaf_index": 2, "leaf_value": -0.0004774039458184246, "leaf_weight": 2651.4207801669836, "leaf_count": 8921}}}}, {"tree_index": 62, "num_leaves": 3, "num_cat": 1, "shrinkage": 0.010389254465734332, "tree_structure": {"split_index": 0, "split_feature": 0, "split_gain": 671.0584106445312, "threshold": "0", "decision_type": "==", "default_left": false, "missing_type": "None", "internal_value": 0, "internal_weight": 0, "internal_count": 24767, "left_child": {"leaf_index": 0, "leaf_value": 0.009057135934825863, "leaf_weight": 2920.6004424095154, "leaf_count": 7868}, "right_child": {"split_index": 1, "split_feature": 5, "split_gain": 471.7496032714844, "threshold": 12.500000000000002, "decision_type": "<=", "default_left": true, "missing_type": "None", "internal_value": 0.27641215814943676, "internal_weight": 5381.614667803049, "internal_count": 16899, "left_child": {"leaf_index": 1, "leaf_value": -0.0007158686176293466, "leaf_weight": 2280.049473360181, "leaf_count": 8236}, "right_child": {"leaf_index": 2, "leaf_value": 0.005509052712995981, "leaf_weight": 3101.5651944428682, "leaf_count": 8663}}}}, {"tree_index": 63, "num_leaves": 3, "num_cat": 0, "shrinkage": 0.010389254465734332, "tree_structure": {"split_index": 0, "split_feature": 6, "split_gain": 664.1407470703125, "threshold": 1.0000000180025095e-35, "decision_type": "<=", "default_left": true, "missing_type": "None", "internal_value": 0, "internal_weight": 0, "internal_count": 24767, "left_child": {"leaf_index": 0, "leaf_value": 0.013059002334770415, "leaf_weight": 972.3198682367802, "leaf_count": 2065}, "right_child": {"split_index": 1, "split_feature": 20, "split_gain": 641.8980712890625, "threshold": 6.500000000000001, "decision_type": "<=", "default_left": true, "missing_type": "None", "internal_value": 0.3774491842138107, "internal_weight": 7337.530209600925, "internal_count": 22702, "left_child": {"leaf_index": 1, "leaf_value": 0.0004756284675729122, "leaf_weight": 3250.356999874115, "leaf_count": 11344}, "right_child": {"leaf_index": 2, "leaf_value": 0.006661705261747051, "leaf_weight": 4087.1732097268105, "leaf_count": 11358}}}}, {"tree_index": 64, "num_leaves": 3, "num_cat": 1, "shrinkage": 0.010389254465734332, "tree_structure": {"split_index": 0, "split_feature": 10, "split_gain": 655.5330810546875, "threshold": 1.0000000180025095e-35, "decision_type": "<=", "default_left": true, "missing_type": "None", "internal_value": 0, "internal_weight": 0, "internal_count": 24767, "left_child": {"leaf_index": 0, "leaf_value": 0.016576023782947445, "leaf_weight": 491.2960927039385, "leaf_count": 860}, "right_child": {"split_index": 1, "split_feature": 1, "split_gain": 638.072265625, "threshold": "1||2||5", "decision_type": "==", "default_left": false, "missing_type": "None", "internal_value": 0.4046687427312144, "internal_weight": 7824.601230978966, "internal_count": 23907, "left_child": {"leaf_index": 1, "leaf_value": 0.0008843602167295498, "leaf_weight": 3490.626884430647, "leaf_count": 11426}, "right_child": {"leaf_index": 2, "leaf_value": 0.006860175074861088, "leaf_weight": 4333.974346548319, "leaf_count": 12481}}}}, {"tree_index": 65, "num_leaves": 3, "num_cat": 1, "shrinkage": 0.010389254465734332, "tree_structure": {"split_index": 0, "split_feature": 13, "split_gain": 653.0603637695312, "threshold": 3.5000000000000004, "decision_type": "<=", "default_left": true, "missing_type": "None", "internal_value": 0, "internal_weight": 0, "internal_count": 24767, "left_child": {"split_index": 1, "split_feature": 1, "split_gain": 519.8484497070312, "threshold": "0||6", "decision_type": "==", "default_left": false, "missing_type": "None", "internal_value": 0.2615844571944438, "internal_weight": 5362.491745784879, "internal_count": 17226, "left_child": {"leaf_index": 0, "leaf_value": 0.005683777830286284, "leaf_weight": 2903.431174337864, "leaf_count": 8699}, "right_child": {"leaf_index": 2, "leaf_value": -0.0008042840497398514, "leaf_weight": 2459.060571447015, "leaf_count": 8527}}, "right_child": {"leaf_index": 1, "leaf_value": 0.00879688995641079, "leaf_weight": 2960.2224210053682, "leaf_count": 7541}}}, {"tree_index": 66, "num_leaves": 3, "num_cat": 2, "shrinkage": 0.010389254465734332, "tree_structure": {"split_index": 0, "split_feature": 0, "split_gain": 649.207275390625, "threshold": "0", "decision_type": "==", "default_left": false, "missing_type": "None", "internal_value": 0, "internal_weight": 0, "internal_count": 24767, "left_child": {"leaf_index": 0, "leaf_value": 0.008760006248837287, "leaf_weight": 2932.4962555766106, "leaf_count": 7868}, "right_child": {"split_index": 1, "split_feature": 1, "split_gain": 518.2317504882812, "threshold": "0||4||6", "decision_type": "==", "default_left": false, "missing_type": "None", "internal_value": 0.2586558404093407, "internal_weight": 5397.284014612436, "internal_count": 16899, "left_child": {"leaf_index": 1, "leaf_value": 0.005876964957976564, "leaf_weight": 2713.683442682028, "leaf_count": 7892}, "right_child": {"leaf_index": 2, "leaf_value": -0.0005580587596484491, "leaf_weight": 2683.6005719304085, "leaf_count": 9007}}}}, {"tree_index": 67, "num_leaves": 3, "num_cat": 0, "shrinkage": 0.010389254465734332, "tree_structure": {"split_index": 0, "split_feature": 10, "split_gain": 644.3147583007812, "threshold": 1.0000000180025095e-35, "decision_type": "<=", "default_left": true, "missing_type": "None", "internal_value": 0, "internal_weight": 0, "internal_count": 24767, "left_child": {"leaf_index": 0, "leaf_value": 0.01632960645409322, "leaf_weight": 489.91762548685074, "leaf_count": 860}, "right_child": {"split_index": 1, "split_feature": 21, "split_gain": 628.0089111328125, "threshold": 22.500000000000004, "decision_type": "<=", "default_left": true, "missing_type": "None", "internal_value": 0.38972458485699657, "internal_weight": 7847.714261770248, "internal_count": 23907, "left_child": {"leaf_index": 1, "leaf_value": 0.0019633196991503746, "leaf_weight": 5219.296682342887, "leaf_count": 17267}, "right_child": {"leaf_index": 2, "leaf_value": 0.00819041777375403, "leaf_weight": 2628.4175794273615, "leaf_count": 6640}}}}, {"tree_index": 68, "num_leaves": 3, "num_cat": 0, "shrinkage": 0.010389254465734332, "tree_structure": {"split_index": 0, "split_feature": 6, "split_gain": 634.9091186523438, "threshold": 1.0000000180025095e-35, "decision_type": "<=", "default_left": true, "missing_type": "None", "internal_value": 0, "internal_weight": 0, "internal_count": 24767, "left_child": {"leaf_index": 0, "leaf_value": 0.01261450954974189, "leaf_weight": 971.1575301289558, "leaf_count": 2065}, "right_child": {"split_index": 1, "split_feature": 20, "split_gain": 613.43310546875, "threshold": 6.500000000000001, "decision_type": "<=", "default_left": true, "missing_type": "None", "internal_value": 0.3540147523422497, "internal_weight": 7371.270720764995, "internal_count": 22702, "left_child": {"leaf_index": 1, "leaf_value": 0.0003164768111285279, "leaf_weight": 3264.576526403427, "leaf_count": 11344}, "right_child": {"leaf_index": 2, "leaf_value": 0.006350119178312723, "leaf_weight": 4106.6941943615675, "leaf_count": 11358}}}}, {"tree_index": 69, "num_leaves": 3, "num_cat": 1, "shrinkage": 0.010389254465734332, "tree_structure": {"split_index": 0, "split_feature": 0, "split_gain": 630.9397583007812, "threshold": "0", "decision_type": "==", "default_left": false, "missing_type": "None", "internal_value": 0, "internal_weight": 0, "internal_count": 24767, "left_child": {"leaf_index": 0, "leaf_value": 0.00853979471988485, "leaf_weight": 2940.2911173701286, "leaf_count": 7868}, "right_child": {"split_index": 1, "split_feature": 6, "split_gain": 443.8623046875, "threshold": 1.0000000180025095e-35, "decision_type": "<=", "default_left": true, "missing_type": "None", "internal_value": 0.24642335347490457, "internal_weight": 5407.1939986646175, "internal_count": 16899, "left_child": {"leaf_index": 1, "leaf_value": 0.011014406137445277, "leaf_weight": 596.3681238144636, "leaf_count": 1342}, "right_child": {"leaf_index": 2, "leaf_value": 0.0015121340524916675, "leaf_weight": 4810.825874850154, "leaf_count": 15557}}}}, {"tree_index": 70, "num_leaves": 3, "num_cat": 0, "shrinkage": 0.010389254465734332, "tree_structure": {"split_index": 0, "split_feature": 10, "split_gain": 621.6904907226562, "threshold": 1.0000000180025095e-35, "decision_type": "<=", "default_left": true, "missing_type": "None", "internal_value": 0, "internal_weight": 0, "internal_count": 24767, "left_child": {"leaf_index": 0, "leaf_value": 0.015995082957005097, "leaf_weight": 487.832574903965, "leaf_count": 860}, "right_child": {"split_index": 1, "split_feature": 21, "split_gain": 608.6970825195312, "threshold": 12.500000000000002, "decision_type": "<=", "default_left": true, "missing_type": "None", "internal_value": 0.376210419741002, "internal_weight": 7866.071822538972, "internal_count": 23907, "left_child": {"leaf_index": 1, "leaf_value": -0.0005804629468801324, "leaf_weight": 2304.9952589571476, "leaf_count": 8374}, "right_child": {"leaf_index": 2, "leaf_value": 0.0057691826083055555, "leaf_weight": 5561.076563581824, "leaf_count": 15533}}}}, {"tree_index": 71, "num_leaves": 3, "num_cat": 1, "shrinkage": 0.010389254465734332, "tree_structure": {"split_index": 0, "split_feature": 13, "split_gain": 620.7493286132812, "threshold": 3.5000000000000004, "decision_type": "<=", "default_left": true, "missing_type": "None", "internal_value": 0, "internal_weight": 0, "internal_count": 24767, "left_child": {"split_index": 1, "split_feature": 1, "split_gain": 495.5046691894531, "threshold": "0||6", "decision_type": "==", "default_left": false, "missing_type": "None", "internal_value": 0.23691189557224276, "internal_weight": 5386.977857738733, "internal_count": 17226, "left_child": {"leaf_index": 0, "leaf_value": 0.005347278708250509, "leaf_weight": 2919.9533418715, "leaf_count": 8699}, "right_child": {"leaf_index": 2, "leaf_value": -0.0009721760789996039, "leaf_weight": 2467.0245158672333, "leaf_count": 8527}}, "right_child": {"leaf_index": 1, "leaf_value": 0.008376396773299358, "leaf_weight": 2971.214918613434, "leaf_count": 7541}}}, {"tree_index": 72, "num_leaves": 3, "num_cat": 0, "shrinkage": 0.010389254465734332, "tree_structure": {"split_index": 0, "split_feature": 10, "split_gain": 611.2598266601562, "threshold": 1.0000000180025095e-35, "decision_type": "<=", "default_left": true, "missing_type": "None", "internal_value": 0, "internal_weight": 0, "internal_count": 24767, "left_child": {"leaf_index": 0, "leaf_value": 0.015815597533401667, "leaf_weight": 486.4631586074829, "leaf_count": 860}, "right_child": {"split_index": 1, "split_feature": 21, "split_gain": 596.4098510742188, "threshold": 22.500000000000004, "decision_type": "<=", "default_left": true, "missing_type": "None", "internal_value": 0.367256739363606, "internal_weight": 7877.671201407909, "internal_count": 23907, "left_child": {"leaf_index": 1, "leaf_value": 0.0017873264281222023, "leaf_weight": 5239.938134819269, "leaf_count": 17267}, "right_child": {"leaf_index": 2, "leaf_value": 0.007844600227156913, "leaf_weight": 2637.73306658864, "leaf_count": 6640}}}}, {"tree_index": 73, "num_leaves": 3, "num_cat": 1, "shrinkage": 0.010389254465734332, "tree_structure": {"split_index": 0, "split_feature": 0, "split_gain": 610.9639892578125, "threshold": "0", "decision_type": "==", "default_left": false, "missing_type": "None", "internal_value": 0, "internal_weight": 0, "internal_count": 24767, "left_child": {"leaf_index": 0, "leaf_value": 0.008269747971988787, "leaf_weight": 2949.175534874201, "leaf_count": 7868}, "right_child": {"split_index": 1, "split_feature": 5, "split_gain": 426.7120361328125, "threshold": 12.500000000000002, "decision_type": "<=", "default_left": true, "missing_type": "None", "internal_value": 0.23038225828502115, "internal_weight": 5418.8287566155195, "internal_count": 16899, "left_child": {"leaf_index": 1, "leaf_value": -0.0010061705644483635, "leaf_weight": 2296.3073704987764, "leaf_count": 8236}, "right_child": {"leaf_index": 2, "leaf_value": 0.004893623169115381, "leaf_weight": 3122.521386116743, "leaf_count": 8663}}}}, {"tree_index": 74, "num_leaves": 3, "num_cat": 1, "shrinkage": 0.010389254465734332, "tree_structure": {"split_index": 0, "split_feature": 13, "split_gain": 597.0950317382812, "threshold": 3.5000000000000004, "decision_type": "<=", "default_left": true, "missing_type": "None", "internal_value": 0, "internal_weight": 0, "internal_count": 24767, "left_child": {"split_index": 1, "split_feature": 1, "split_gain": 482.46820068359375, "threshold": "0||6", "decision_type": "==", "default_left": false, "missing_type": "None", "internal_value": 0.22664700725552, "internal_weight": 5396.726413145661, "internal_count": 17226, "left_child": {"leaf_index": 0, "leaf_value": 0.00519795746139027, "leaf_weight": 2927.1067586541176, "leaf_count": 8699}, "right_child": {"leaf_index": 2, "leaf_value": -0.0010321420648494973, "leaf_weight": 2469.6196544915438, "leaf_count": 8527}}, "right_child": {"leaf_index": 1, "leaf_value": 0.008150561425841083, "leaf_weight": 2976.8380526453257, "leaf_count": 7541}}}, {"tree_index": 75, "num_leaves": 3, "num_cat": 2, "shrinkage": 0.010389254465734332, "tree_structure": {"split_index": 0, "split_feature": 0, "split_gain": 594.9153442382812, "threshold": "0", "decision_type": "==", "default_left": false, "missing_type": "None", "internal_value": 0, "internal_weight": 0, "internal_count": 24767, "left_child": {"leaf_index": 0, "leaf_value": 0.00811696637747951, "leaf_weight": 2955.0817481279373, "leaf_count": 7868}, "right_child": {"split_index": 1, "split_feature": 1, "split_gain": 489.531494140625, "threshold": "0||4||6", "decision_type": "==", "default_left": false, "missing_type": "None", "internal_value": 0.2236078940961773, "internal_weight": 5423.8989693671465, "internal_count": 16899, "left_child": {"leaf_index": 1, "leaf_value": 0.005411785198507288, "leaf_weight": 2730.700574040413, "leaf_count": 7892}, "right_child": {"leaf_index": 2, "leaf_value": -0.0008255843745038013, "leaf_weight": 2693.1983953267336, "leaf_count": 9007}}}}, {"tree_index": 76, "num_leaves": 3, "num_cat": 0, "shrinkage": 0.010389254465734332, "tree_structure": {"split_index": 0, "split_feature": 13, "split_gain": 583.72314453125, "threshold": 3.5000000000000004, "decision_type": "<=", "default_left": true, "missing_type": "None", "internal_value": 0, "internal_weight": 0, "internal_count": 24767, "left_child": {"split_index": 1, "split_feature": 15, "split_gain": 311.8904724121094, "threshold": 14.500000000000002, "decision_type": "<=", "default_left": true, "missing_type": "None", "internal_value": 0.2196706063337463, "internal_weight": 5404.457516297698, "internal_count": 17226, "left_child": {"leaf_index": 0, "leaf_value": 0.005199357193949387, "leaf_weight": 2284.0770885795355, "leaf_count": 6833}, "right_child": {"leaf_index": 2, "leaf_value": 0.0001469035729022518, "leaf_weight": 3120.3804277181625, "leaf_count": 10393}}, "right_child": {"leaf_index": 1, "leaf_value": 0.008008930585361866, "leaf_weight": 2980.7547183930874, "leaf_count": 7541}}}, {"tree_index": 77, "num_leaves": 3, "num_cat": 0, "shrinkage": 0.010389254465734332, "tree_structure": {"split_index": 0, "split_feature": 10, "split_gain": 602.0347900390625, "threshold": 1.0000000180025095e-35, "decision_type": "<=", "default_left": true, "missing_type": "None", "internal_value": 0, "internal_weight": 0, "internal_count": 24767, "left_child": {"leaf_index": 0, "leaf_value": 0.015521042679746829, "leaf_weight": 483.7708954066038, "leaf_count": 860}, "right_child": {"split_index": 1, "split_feature": 5, "split_gain": 567.9420776367188, "threshold": 17.500000000000004, "decision_type": "<=", "default_left": true, "missing_type": "None", "internal_value": 0.34477607082417117, "internal_weight": 7906.778855502605, "internal_count": 23907, "left_child": {"leaf_index": 1, "leaf_value": 0.001371530995577274, "leaf_weight": 4850.172139510512, "leaf_count": 16101}, "right_child": {"leaf_index": 2, "leaf_value": 0.007089447958793262, "leaf_weight": 3056.606715992093, "leaf_count": 7806}}}}, {"tree_index": 78, "num_leaves": 3, "num_cat": 0, "shrinkage": 0.010389254465734332, "tree_structure": {"split_index": 0, "split_feature": 6, "split_gain": 594.9752197265625, "threshold": 1.0000000180025095e-35, "decision_type": "<=", "default_left": true, "missing_type": "None", "internal_value": 0, "internal_weight": 0, "internal_count": 24767, "left_child": {"leaf_index": 0, "leaf_value": 0.011891802976846213, "leaf_weight": 966.5888860523701, "leaf_count": 2065}, "right_child": {"split_index": 1, "split_feature": 20, "split_gain": 559.7009887695312, "threshold": 6.500000000000001, "decision_type": "<=", "default_left": true, "missing_type": "None", "internal_value": 0.31056824832094954, "internal_weight": 7426.983280017972, "internal_count": 22702, "left_child": {"leaf_index": 1, "leaf_value": 2.6973891567035644e-05, "leaf_weight": 3288.3512145727873, "leaf_count": 11344}, "right_child": {"leaf_index": 2, "leaf_value": 0.005768814539216838, "leaf_weight": 4138.632065445185, "leaf_count": 11358}}}}, {"tree_index": 79, "num_leaves": 3, "num_cat": 1, "shrinkage": 0.010389254465734332, "tree_structure": {"split_index": 0, "split_feature": 10, "split_gain": 585.73779296875, "threshold": 1.0000000180025095e-35, "decision_type": "<=", "default_left": true, "missing_type": "None", "internal_value": 0, "internal_weight": 0, "internal_count": 24767, "left_child": {"leaf_index": 0, "leaf_value": 0.015301452517031666, "leaf_weight": 481.7279999256134, "leaf_count": 860}, "right_child": {"split_index": 1, "split_feature": 1, "split_gain": 569.4129638671875, "threshold": "1||2||5", "decision_type": "==", "default_left": false, "missing_type": "None", "internal_value": 0.3370726368709364, "internal_weight": 7915.219909802079, "internal_count": 23907, "left_child": {"leaf_index": 1, "leaf_value": 0.00037815141729822583, "leaf_weight": 3520.232984304428, "leaf_count": 11426}, "right_child": {"leaf_index": 2, "leaf_value": 0.005989486641751466, "leaf_weight": 4394.986925497651, "leaf_count": 12481}}}}, {"tree_index": 80, "num_leaves": 3, "num_cat": 0, "shrinkage": 0.010389254465734332, "tree_structure": {"split_index": 0, "split_feature": 6, "split_gain": 576.415771484375, "threshold": 1.0000000180025095e-35, "decision_type": "<=", "default_left": true, "missing_type": "None", "internal_value": 0, "internal_weight": 0, "internal_count": 24767, "left_child": {"leaf_index": 0, "leaf_value": 0.011687196075089704, "leaf_weight": 965.1254206448793, "leaf_count": 2065}, "right_child": {"split_index": 1, "split_feature": 10, "split_gain": 553.4110717773438, "threshold": 21.500000000000004, "decision_type": "<=", "default_left": true, "missing_type": "None", "internal_value": 0.30349255822260207, "internal_weight": 7435.992977052927, "internal_count": 22702, "left_child": {"leaf_index": 1, "leaf_value": 0.0013643166620213585, "leaf_weight": 5317.850268006325, "leaf_count": 17343}, "right_child": {"leaf_index": 2, "leaf_value": 0.007643918772994319, "leaf_weight": 2118.1427090466022, "leaf_count": 5359}}}}, {"tree_index": 81, "num_leaves": 3, "num_cat": 1, "shrinkage": 0.010389254465734332, "tree_structure": {"split_index": 0, "split_feature": 0, "split_gain": 574.6473999023438, "threshold": "0", "decision_type": "==", "default_left": false, "missing_type": "None", "internal_value": 0, "internal_weight": 0, "internal_count": 24767, "left_child": {"leaf_index": 0, "leaf_value": 0.0077692356506643785, "leaf_weight": 2964.254620924592, "leaf_count": 7868}, "right_child": {"split_index": 1, "split_feature": 11, "split_gain": 402.5975341796875, "threshold": 63.00000000000001, "decision_type": "<=", "default_left": true, "missing_type": "None", "internal_value": 0.20055549985204224, "internal_weight": 5440.012111827731, "internal_count": 16899, "left_child": {"leaf_index": 1, "leaf_value": 0.004557898067526936, "leaf_weight": 3079.7146481722593, "leaf_count": 9082}, "right_child": {"leaf_index": 2, "leaf_value": -0.0011448115766602876, "leaf_weight": 2360.297463655472, "leaf_count": 7817}}}}, {"tree_index": 82, "num_leaves": 3, "num_cat": 0, "shrinkage": 0.010389254465734332, "tree_structure": {"split_index": 0, "split_feature": 6, "split_gain": 565.4056396484375, "threshold": 1.0000000180025095e-35, "decision_type": "<=", "default_left": true, "missing_type": "None", "internal_value": 0, "internal_weight": 0, "internal_count": 24767, "left_child": {"leaf_index": 0, "leaf_value": 0.011529120691296623, "leaf_weight": 964.3120651990175, "leaf_count": 2065}, "right_child": {"split_index": 1, "split_feature": 20, "split_gain": 539.7626953125, "threshold": 9.500000000000002, "decision_type": "<=", "default_left": true, "missing_type": "None", "internal_value": 0.29591617704872536, "internal_weight": 7445.486939057708, "internal_count": 22702, "left_child": {"leaf_index": 1, "leaf_value": 0.0007932447840466552, "leaf_weight": 4471.8054853230715, "leaf_count": 14880}, "right_child": {"leaf_index": 2, "leaf_value": 0.006504659378758537, "leaf_weight": 2973.6814537346363, "leaf_count": 7822}}}}, {"tree_index": 83, "num_leaves": 3, "num_cat": 1, "shrinkage": 0.010389254465734332, "tree_structure": {"split_index": 0, "split_feature": 6, "split_gain": 554.5314331054688, "threshold": 1.0000000180025095e-35, "decision_type": "<=", "default_left": true, "missing_type": "None", "internal_value": 0, "internal_weight": 0, "internal_count": 24767, "left_child": {"leaf_index": 0, "leaf_value": 0.011416039314616324, "leaf_weight": 963.7492188215256, "leaf_count": 2065}, "right_child": {"split_index": 1, "split_feature": 1, "split_gain": 505.9093933105469, "threshold": "0||6||7", "decision_type": "==", "default_left": false, "missing_type": "None", "internal_value": 0.2927080627004817, "internal_weight": 7448.86106055975, "internal_count": 22702, "left_child": {"leaf_index": 1, "leaf_value": 0.0056381414728556125, "leaf_weight": 3869.452423006296, "leaf_count": 11050}, "right_child": {"leaf_index": 2, "leaf_value": 0.00021708953311709917, "leaf_weight": 3579.4086375534534, "leaf_count": 11652}}}}, {"tree_index": 84, "num_leaves": 3, "num_cat": 2, "shrinkage": 0.010389254465734332, "tree_structure": {"split_index": 0, "split_feature": 0, "split_gain": 559.7522583007812, "threshold": "0", "decision_type": "==", "default_left": false, "missing_type": "None", "internal_value": 0, "internal_weight": 0, "internal_count": 24767, "left_child": {"leaf_index": 0, "leaf_value": 0.007586071791164403, "leaf_weight": 2969.311887189746, "leaf_count": 7868}, "right_child": {"split_index": 1, "split_feature": 1, "split_gain": 457.06256103515625, "threshold": "0||4||6", "decision_type": "==", "default_left": false, "missing_type": "None", "internal_value": 0.19048587664119843, "internal_weight": 5447.070685863495, "internal_count": 16899, "left_child": {"leaf_index": 1, "leaf_value": 0.0049534646539106586, "leaf_weight": 2746.032984763384, "leaf_count": 7892}, "right_child": {"leaf_index": 2, "leaf_value": -0.0010594190822287492, "leaf_weight": 2701.037701100111, "leaf_count": 9007}}}}, {"tree_index": 85, "num_leaves": 3, "num_cat": 0, "shrinkage": 0.010389254465734332, "tree_structure": {"split_index": 0, "split_feature": 10, "split_gain": 559.066162109375, "threshold": 1.0000000180025095e-35, "decision_type": "<=", "default_left": true, "missing_type": "None", "internal_value": 0, "internal_weight": 0, "internal_count": 24767, "left_child": {"leaf_index": 0, "leaf_value": 0.014842163569783774, "leaf_weight": 476.6700837612152, "leaf_count": 860}, "right_child": {"split_index": 1, "split_feature": 5, "split_gain": 543.05810546875, "threshold": 10.500000000000002, "decision_type": "<=", "default_left": true, "missing_type": "None", "internal_value": 0.3136058050548743, "internal_weight": 7944.612497836351, "internal_count": 23907, "left_child": {"leaf_index": 1, "leaf_value": -0.0007644986687884664, "leaf_weight": 2487.9806919395924, "leaf_count": 8853}, "right_child": {"leaf_index": 2, "leaf_value": 0.0050922699734653075, "leaf_weight": 5456.631805896759, "leaf_count": 15054}}}}, {"tree_index": 86, "num_leaves": 3, "num_cat": 1, "shrinkage": 0.010389254465734332, "tree_structure": {"split_index": 0, "split_feature": 13, "split_gain": 546.9964599609375, "threshold": 3.5000000000000004, "decision_type": "<=", "default_left": true, "missing_type": "None", "internal_value": 0, "internal_weight": 0, "internal_count": 24767, "left_child": {"split_index": 1, "split_feature": 1, "split_gain": 433.45184326171875, "threshold": "1||2||4||5", "decision_type": "==", "default_left": false, "missing_type": "None", "internal_value": 0.18374442119321002, "internal_weight": 5434.724920660257, "internal_count": 17226, "left_child": {"leaf_index": 0, "leaf_value": -0.0015165080809982979, "leaf_weight": 2300.9686113148928, "leaf_count": 7952}, "right_child": {"leaf_index": 2, "leaf_value": 0.0044148829350884955, "leaf_weight": 3133.7563093453646, "leaf_count": 9274}}, "right_child": {"leaf_index": 1, "leaf_value": 0.007442429133939665, "leaf_weight": 2988.5752145051956, "leaf_count": 7541}}}, {"tree_index": 87, "num_leaves": 3, "num_cat": 0, "shrinkage": 0.010389254465734332, "tree_structure": {"split_index": 0, "split_feature": 10, "split_gain": 550.355224609375, "threshold": 1.0000000180025095e-35, "decision_type": "<=", "default_left": true, "missing_type": "None", "internal_value": 0, "internal_weight": 0, "internal_count": 24767, "left_child": {"leaf_index": 0, "leaf_value": 0.014696107776866675, "leaf_weight": 474.79558961093426, "leaf_count": 860}, "right_child": {"split_index": 1, "split_feature": 21, "split_gain": 530.0595092773438, "threshold": 22.500000000000004, "decision_type": "<=", "default_left": true, "missing_type": "None", "internal_value": 0.3062395028318904, "internal_weight": 7952.168646991253, "internal_count": 23907, "left_child": {"leaf_index": 1, "leaf_value": 0.0012822535583758563, "leaf_weight": 5296.436095893383, "leaf_count": 17267}, "right_child": {"leaf_index": 2, "leaf_value": 0.0069695446938496525, "leaf_weight": 2655.73255109787, "leaf_count": 6640}}}}, {"tree_index": 88, "num_leaves": 3, "num_cat": 2, "shrinkage": 0.010389254465734332, "tree_structure": {"split_index": 0, "split_feature": 0, "split_gain": 543.2113647460938, "threshold": "0", "decision_type": "==", "default_left": false, "missing_type": "None", "internal_value": 0, "internal_weight": 0, "internal_count": 24767, "left_child": {"leaf_index": 0, "leaf_value": 0.007361565793395578, "leaf_weight": 2974.1889603585005, "leaf_count": 7868}, "right_child": {"split_index": 1, "split_feature": 1, "split_gain": 440.8605651855469, "threshold": "0||4||6", "decision_type": "==", "default_left": false, "missing_type": "None", "internal_value": 0.17731950857403814, "internal_weight": 5454.4474117308855, "internal_count": 16899, "left_child": {"leaf_index": 1, "leaf_value": 0.004759476152595267, "leaf_weight": 2751.787965223193, "leaf_count": 7892}, "right_child": {"leaf_index": 2, "leaf_value": -0.0011414575126162472, "leaf_weight": 2702.6594465076923, "leaf_count": 9007}}}}, {"tree_index": 89, "num_leaves": 3, "num_cat": 1, "shrinkage": 0.010389254465734332, "tree_structure": {"split_index": 0, "split_feature": 10, "split_gain": 542.02197265625, "threshold": 1.0000000180025095e-35, "decision_type": "<=", "default_left": true, "missing_type": "None", "internal_value": 0, "internal_weight": 0, "internal_count": 24767, "left_child": {"leaf_index": 0, "leaf_value": 0.014554664010261823, "leaf_weight": 472.9116541147232, "leaf_count": 860}, "right_child": {"split_index": 1, "split_feature": 1, "split_gain": 515.99755859375, "threshold": "1||2||5", "decision_type": "==", "default_left": false, "missing_type": "None", "internal_value": 0.299013229079211, "internal_weight": 7960.098386228085, "internal_count": 23907, "left_child": {"leaf_index": 1, "leaf_value": 0.00013671405997569966, "leaf_weight": 3532.353012263775, "leaf_count": 11426}, "right_child": {"leaf_index": 2, "leaf_value": 0.0054631235812831165, "leaf_weight": 4427.74537396431, "leaf_count": 12481}}}}, {"tree_index": 90, "num_leaves": 3, "num_cat": 0, "shrinkage": 0.010389254465734332, "tree_structure": {"split_index": 0, "split_feature": 10, "split_gain": 533.6141357421875, "threshold": 1.0000000180025095e-35, "decision_type": "<=", "default_left": true, "missing_type": "None", "internal_value": 0, "internal_weight": 0, "internal_count": 24767, "left_child": {"leaf_index": 0, "leaf_value": 0.014447974736872045, "leaf_weight": 471.4618823081255, "leaf_count": 860}, "right_child": {"split_index": 1, "split_feature": 5, "split_gain": 520.3662109375, "threshold": 10.500000000000002, "decision_type": "<=", "default_left": true, "missing_type": "None", "internal_value": 0.29575464702623155, "internal_weight": 7964.341902017593, "internal_count": 23907, "left_child": {"leaf_index": 1, "leaf_value": -0.0008596581180780458, "leaf_weight": 2494.577620819211, "leaf_count": 8853}, "right_child": {"leaf_index": 2, "leaf_value": 0.004866074524501869, "leaf_weight": 5469.764281198382, "leaf_count": 15054}}}}, {"tree_index": 91, "num_leaves": 3, "num_cat": 0, "shrinkage": 0.010389254465734332, "tree_structure": {"split_index": 0, "split_feature": 10, "split_gain": 525.3485717773438, "threshold": 1.0000000180025095e-35, "decision_type": "<=", "default_left": true, "missing_type": "None", "internal_value": 0, "internal_weight": 0, "internal_count": 24767, "left_child": {"leaf_index": 0, "leaf_value": 0.014343158356302066, "leaf_weight": 469.9809948503971, "leaf_count": 860}, "right_child": {"split_index": 1, "split_feature": 21, "split_gain": 513.6050415039062, "threshold": 12.500000000000002, "decision_type": "<=", "default_left": true, "missing_type": "None", "internal_value": 0.2925750085294499, "internal_weight": 7967.223274290562, "internal_count": 23907, "left_child": {"leaf_index": 1, "leaf_value": -0.001054166114251174, "leaf_weight": 2337.3963448256254, "leaf_count": 8374}, "right_child": {"leaf_index": 2, "leaf_value": 0.004739304555104677, "leaf_weight": 5629.826929464936, "leaf_count": 15533}}}}, {"tree_index": 92, "num_leaves": 3, "num_cat": 2, "shrinkage": 0.010389254465734332, "tree_structure": {"split_index": 0, "split_feature": 0, "split_gain": 527.3661499023438, "threshold": "0", "decision_type": "==", "default_left": false, "missing_type": "None", "internal_value": 0, "internal_weight": 0, "internal_count": 24767, "left_child": {"leaf_index": 0, "leaf_value": 0.007147563939025666, "leaf_weight": 2977.9615365862846, "leaf_count": 7868}, "right_child": {"split_index": 1, "split_feature": 1, "split_gain": 422.84893798828125, "threshold": "0||4||6", "decision_type": "==", "default_left": false, "missing_type": "None", "internal_value": 0.16484382997634195, "internal_weight": 5460.505620658398, "internal_count": 16899, "left_child": {"leaf_index": 1, "leaf_value": 0.004566022406878051, "leaf_weight": 2756.935577362776, "leaf_count": 7892}, "right_child": {"leaf_index": 2, "leaf_value": -0.001209551738815163, "leaf_weight": 2703.570043295622, "leaf_count": 9007}}}}, {"tree_index": 93, "num_leaves": 3, "num_cat": 0, "shrinkage": 0.010389254465734332, "tree_structure": {"split_index": 0, "split_feature": 10, "split_gain": 517.5923461914062, "threshold": 1.0000000180025095e-35, "decision_type": "<=", "default_left": true, "missing_type": "None", "internal_value": 0, "internal_weight": 0, "internal_count": 24767, "left_child": {"leaf_index": 0, "leaf_value": 0.014210343702423937, "leaf_weight": 467.968817204237, "leaf_count": 860}, "right_child": {"split_index": 1, "split_feature": 5, "split_gain": 505.603515625, "threshold": 17.500000000000004, "decision_type": "<=", "default_left": true, "missing_type": "None", "internal_value": 0.28568934012896124, "internal_weight": 7974.3850936591625, "internal_count": 23907, "left_child": {"leaf_index": 1, "leaf_value": 0.0008956633519268362, "leaf_weight": 4899.485007941723, "leaf_count": 16101}, "right_child": {"leaf_index": 2, "leaf_value": 0.006270277646495852, "leaf_weight": 3074.9000857174397, "leaf_count": 7806}}}}, {"tree_index": 94, "num_leaves": 3, "num_cat": 1, "shrinkage": 0.010389254465734332, "tree_structure": {"split_index": 0, "split_feature": 13, "split_gain": 517.8167114257812, "threshold": 3.5000000000000004, "decision_type": "<=", "default_left": true, "missing_type": "None", "internal_value": 0, "internal_weight": 0, "internal_count": 24767, "left_child": {"split_index": 1, "split_feature": 1, "split_gain": 400.9151916503906, "threshold": "0||6", "decision_type": "==", "default_left": false, "missing_type": "None", "internal_value": 0.1586136506028932, "internal_weight": 5452.127740234137, "internal_count": 17226, "left_child": {"leaf_index": 0, "leaf_value": 0.004216947111568181, "leaf_weight": 2968.0505178570747, "leaf_count": 8699}, "right_child": {"leaf_index": 2, "leaf_value": -0.001432931764340366, "leaf_weight": 2484.077222377062, "leaf_count": 8527}}, "right_child": {"leaf_index": 1, "leaf_value": 0.0070271728789081025, "leaf_weight": 2991.160018771887, "leaf_count": 7541}}}, {"tree_index": 95, "num_leaves": 3, "num_cat": 2, "shrinkage": 0.010389254465734332, "tree_structure": {"split_index": 0, "split_feature": 0, "split_gain": 513.3719482421875, "threshold": "0", "decision_type": "==", "default_left": false, "missing_type": "None", "internal_value": 0, "internal_weight": 0, "internal_count": 24767, "left_child": {"leaf_index": 0, "leaf_value": 0.006983427210216467, "leaf_weight": 2981.2191619873047, "leaf_count": 7868}, "right_child": {"split_index": 1, "split_feature": 1, "split_gain": 408.1225891113281, "threshold": "0||4||6", "decision_type": "==", "default_left": false, "missing_type": "None", "internal_value": 0.1562865829495724, "internal_weight": 5464.785530462861, "internal_count": 16899, "left_child": {"leaf_index": 1, "leaf_value": 0.004423948578233796, "leaf_weight": 2761.091403990984, "leaf_count": 7892}, "right_child": {"leaf_index": 2, "leaf_value": -0.0012477411057081548, "leaf_weight": 2703.694126471877, "leaf_count": 9007}}}}, {"tree_index": 96, "num_leaves": 3, "num_cat": 0, "shrinkage": 0.010389254465734332, "tree_structure": {"split_index": 0, "split_feature": 6, "split_gain": 511.5935363769531, "threshold": 1.0000000180025095e-35, "decision_type": "<=", "default_left": true, "missing_type": "None", "internal_value": 0, "internal_weight": 0, "internal_count": 24767, "left_child": {"leaf_index": 0, "leaf_value": 0.010654916178151029, "leaf_weight": 951.2549967318773, "leaf_count": 2065}, "right_child": {"split_index": 1, "split_feature": 10, "split_gain": 495.72564697265625, "threshold": 21.500000000000004, "decision_type": "<=", "default_left": true, "missing_type": "None", "internal_value": 0.24708698245822316, "internal_weight": 7498.288330569863, "internal_count": 22702, "left_child": {"leaf_index": 1, "leaf_value": 0.0008834275105710548, "leaf_weight": 5366.541391581297, "leaf_count": 17343}, "right_child": {"leaf_index": 2, "leaf_value": 0.006805464106444386, "leaf_weight": 2131.7469389885664, "leaf_count": 5359}}}}, {"tree_index": 97, "num_leaves": 3, "num_cat": 0, "shrinkage": 0.010389254465734332, "tree_structure": {"split_index": 0, "split_feature": 10, "split_gain": 505.1448974609375, "threshold": 1.0000000180025095e-35, "decision_type": "<=", "default_left": true, "missing_type": "None", "internal_value": 0, "internal_weight": 0, "internal_count": 24767, "left_child": {"leaf_index": 0, "leaf_value": 0.013977357202274462, "leaf_weight": 464.15935838222504, "leaf_count": 860}, "right_child": {"split_index": 1, "split_feature": 21, "split_gain": 489.3958740234375, "threshold": 22.500000000000004, "decision_type": "<=", "default_left": true, "missing_type": "None", "internal_value": 0.27226389301429627, "internal_weight": 7986.594108819962, "internal_count": 23907, "left_child": {"leaf_index": 1, "leaf_value": 0.0010099497616627565, "leaf_weight": 5324.110315665603, "leaf_count": 17267}, "right_child": {"leaf_index": 2, "leaf_value": 0.006465371497858753, "leaf_weight": 2662.483793154359, "leaf_count": 6640}}}}, {"tree_index": 98, "num_leaves": 3, "num_cat": 2, "shrinkage": 0.010389254465734332, "tree_structure": {"split_index": 0, "split_feature": 0, "split_gain": 500.4126892089844, "threshold": "0", "decision_type": "==", "default_left": false, "missing_type": "None", "internal_value": 0, 